solver_type L2R_L2LOSS_SVC_DUAL
nr_class 2
label 1 2
nr_feature 31872
bias -1
w
-1.818959838063819e-06 
3.810171769530037e-06 
-5.255341072797826e-06 
0 
-1.818959838063819e-06 
-3.810171769530037e-06 
-1.818959838063819e-06 
3.810171769530037e-06 
-5.255341072797826e-06 
0 
-1.818959838063819e-06 
-3.810171769530037e-06 
-1.818959838063819e-06 
3.810171769530037e-06 
-5.255341072797826e-06 
0 
-1.818959838063819e-06 
-3.810171769530037e-06 
-1.818959838063819e-06 
3.810171769530037e-06 
-5.255341072797826e-06 
0 
-1.818959838063819e-06 
-3.810171769530037e-06 
0.001689468455410936 
-0.00133889854762312 
0.0006727027192979268 
0 
0.001689468455410936 
0.00133889854762312 
0.007917456567082632 
-0.0002542385492260488 
0.01012338661425069 
0 
0.007917456567082632 
0.0002542385492260488 
-0.0004935905803816944 
-0.0007694107951688393 
-0.001063303948823683 
0 
-0.0004935905803816944 
0.0007694107951688393 
-0.01082026829110233 
-0.003095273787877056 
-0.01254603841104743 
0 
-0.01082026829110233 
0.003095273787877056 
-0.007751206224050858 
0.003057743200791658 
-0.009560871917166978 
0 
-0.007751206224050858 
-0.003057743200791658 
-1.818959838063819e-06 
3.810171769530037e-06 
-5.255341072797826e-06 
0 
-1.818959838063819e-06 
-3.810171769530037e-06 
-1.818959838063819e-06 
3.810171769530037e-06 
-5.255341072797826e-06 
0 
-1.818959838063819e-06 
-3.810171769530037e-06 
-1.818959838063819e-06 
3.810171769530037e-06 
-5.255341072797826e-06 
0 
-1.818959838063819e-06 
-3.810171769530037e-06 
-1.818959838063819e-06 
3.810171769530037e-06 
-5.255341072797826e-06 
0 
-1.818959838063819e-06 
-3.810171769530037e-06 
-1.818959838063819e-06 
3.810171769530037e-06 
-5.255341072797826e-06 
0 
-1.818959838063819e-06 
-3.810171769530037e-06 
-1.818959838063819e-06 
3.810171769530037e-06 
-5.255341072797826e-06 
0 
-1.818959838063819e-06 
-3.810171769530037e-06 
-1.818959838063819e-06 
3.810171769530037e-06 
-5.255341072797826e-06 
0 
-1.818959838063819e-06 
-3.810171769530037e-06 
-1.818959838063819e-06 
3.810171769530037e-06 
-5.255341072797826e-06 
0 
-1.818959838063819e-06 
-3.810171769530037e-06 
-1.818959838063819e-06 
3.810171769530037e-06 
-5.255341072797826e-06 
0 
-1.818959838063819e-06 
-3.810171769530037e-06 
-1.818959838063819e-06 
3.810171769530037e-06 
-5.255341072797826e-06 
0 
-1.818959838063819e-06 
-3.810171769530037e-06 
-1.818959838063819e-06 
3.810171769530037e-06 
-5.255341072797826e-06 
0 
-1.818959838063819e-06 
-3.810171769530037e-06 
-0.001088290742435231 
-0.0006865826232956086 
-0.002013706438222611 
0 
-0.001088290742435231 
0.0006865826232956086 
-0.01340614528877763 
-0.001179728904558896 
-0.01483424839704175 
0 
-0.01340614528877763 
0.001179728904558896 
0.006731045593857332 
0.0003578341179571314 
0.006316810548983688 
0 
0.006731045593857332 
-0.0003578341179571314 
0.000660189199468009 
0.001333962081210489 
0.002669786471425862 
0 
0.000660189199468009 
-0.001333962081210489 
0.001470936877333261 
-0.001290251405423598 
0.0002796820410841434 
0 
0.001470936877333261 
0.001290251405423598 
-1.818959838063819e-06 
3.810171769530037e-06 
-5.255341072797826e-06 
0 
-1.818959838063819e-06 
-3.810171769530037e-06 
-1.818959838063819e-06 
3.810171769530037e-06 
-5.255341072797826e-06 
0 
-1.818959838063819e-06 
-3.810171769530037e-06 
-1.818959838063819e-06 
3.810171769530037e-06 
-5.255341072797826e-06 
0 
-1.818959838063819e-06 
-3.810171769530037e-06 
-1.818959838063819e-06 
3.810171769530037e-06 
-5.255341072797826e-06 
0 
-1.818959838063819e-06 
-3.810171769530037e-06 
-1.818959838063819e-06 
3.810171769530037e-06 
-5.255341072797826e-06 
0 
-1.818959838063819e-06 
-3.810171769530037e-06 
-1.818959838063819e-06 
3.810171769530037e-06 
-5.255341072797826e-06 
0 
-1.818959838063819e-06 
-3.810171769530037e-06 
-1.818959838063819e-06 
3.810171769530037e-06 
-5.255341072797826e-06 
0 
-1.818959838063819e-06 
-3.810171769530037e-06 
-1.818959838063819e-06 
3.810171769530037e-06 
-5.255341072797826e-06 
0 
-1.818959838063819e-06 
-3.810171769530037e-06 
-1.818959838063819e-06 
3.810171769530037e-06 
-5.255341072797826e-06 
0 
-1.818959838063819e-06 
-3.810171769530037e-06 
-1.818959838063819e-06 
3.810171769530037e-06 
-5.255341072797826e-06 
0 
-1.818959838063819e-06 
-3.810171769530037e-06 
-1.818959838063819e-06 
3.810171769530037e-06 
-5.255341072797826e-06 
0 
-1.818959838063819e-06 
-3.810171769530037e-06 
-0.0005052684968016888 
-0.002810913495664219 
-0.001745542404564092 
0 
-0.0005052684968016888 
0.002810913495664219 
-0.003642186719111873 
-0.001041596876358588 
-0.004235680099170493 
0 
-0.003642186719111873 
0.001041596876358588 
0.002945080481855921 
-0.0002871339696865241 
0.002159784980705803 
0 
0.002945080481855921 
0.0002871339696865241 
-0.005956447831637763 
-0.0003374674451197698 
-0.00605037720978536 
0 
-0.005956447831637763 
0.0003374674451197698 
-0.007069496622522941 
-0.0001086577778495651 
-0.009261489597663023 
0 
-0.007069496622522941 
0.0001086577778495651 
-1.818959838063819e-06 
3.810171769530037e-06 
-5.255341072797826e-06 
0 
-1.818959838063819e-06 
-3.810171769530037e-06 
-1.818959838063819e-06 
3.810171769530037e-06 
-5.255341072797826e-06 
0 
-1.818959838063819e-06 
-3.810171769530037e-06 
-1.818959838063819e-06 
3.810171769530037e-06 
-5.255341072797826e-06 
0 
-1.818959838063819e-06 
-3.810171769530037e-06 
-1.818959838063819e-06 
3.810171769530037e-06 
-5.255341072797826e-06 
0 
-1.818959838063819e-06 
-3.810171769530037e-06 
-1.818959838063819e-06 
3.810171769530037e-06 
-5.255341072797826e-06 
0 
-1.818959838063819e-06 
-3.810171769530037e-06 
-1.818959838063819e-06 
3.810171769530037e-06 
-5.255341072797826e-06 
0 
-1.818959838063819e-06 
-3.810171769530037e-06 
-1.818959838063819e-06 
3.810171769530037e-06 
-5.255341072797826e-06 
0 
-1.818959838063819e-06 
-3.810171769530037e-06 
-1.818959838063819e-06 
3.810171769530037e-06 
-5.255341072797826e-06 
0 
-1.818959838063819e-06 
-3.810171769530037e-06 
-1.818959838063819e-06 
3.810171769530037e-06 
-5.255341072797826e-06 
0 
-1.818959838063819e-06 
-3.810171769530037e-06 
-1.818959838063819e-06 
3.810171769530037e-06 
-5.255341072797826e-06 
0 
-1.818959838063819e-06 
-3.810171769530037e-06 
-1.818959838063819e-06 
3.810171769530037e-06 
-5.255341072797826e-06 
0 
-1.818959838063819e-06 
-3.810171769530037e-06 
0.004038697187289749 
-0.00220783287562163 
0.00363863073993817 
0 
0.004038697187289749 
0.00220783287562163 
-0.008034515762888663 
-0.000812120552168497 
-0.00878074397242363 
0 
-0.008034515762888663 
0.000812120552168497 
0.002985239751465116 
0.0005159284746946446 
0.002081962261048508 
0 
0.002985239751465116 
-0.0005159284746946446 
0.001169316121823622 
0.001559588144511789 
0.001254107415676049 
0 
0.001169316121823622 
-0.001559588144511789 
-0.0004733224831530473 
-0.001544429182286714 
-0.002163694394780358 
0 
-0.0004733224831530473 
0.001544429182286714 
-1.818959838063819e-06 
3.810171769530037e-06 
-5.255341072797826e-06 
0 
-1.818959838063819e-06 
-3.810171769530037e-06 
-1.818959838063819e-06 
3.810171769530037e-06 
-5.255341072797826e-06 
0 
-1.818959838063819e-06 
-3.810171769530037e-06 
-1.818959838063819e-06 
3.810171769530037e-06 
-5.255341072797826e-06 
0 
-1.818959838063819e-06 
-3.810171769530037e-06 
-1.818959838063819e-06 
3.810171769530037e-06 
-5.255341072797826e-06 
0 
-1.818959838063819e-06 
-3.810171769530037e-06 
-1.818959838063819e-06 
3.810171769530037e-06 
-5.255341072797826e-06 
0 
-1.818959838063819e-06 
-3.810171769530037e-06 
-1.818959838063819e-06 
3.810171769530037e-06 
-5.255341072797826e-06 
0 
-1.818959838063819e-06 
-3.810171769530037e-06 
-1.818959838063819e-06 
3.810171769530037e-06 
-5.255341072797826e-06 
0 
-1.818959838063819e-06 
-3.810171769530037e-06 
-1.818959838063819e-06 
3.810171769530037e-06 
-5.255341072797826e-06 
0 
-1.818959838063819e-06 
-3.810171769530037e-06 
-1.818959838063819e-06 
3.810171769530037e-06 
-5.255341072797826e-06 
0 
-1.818959838063819e-06 
-3.810171769530037e-06 
-1.818959838063819e-06 
3.810171769530037e-06 
-5.255341072797826e-06 
0 
-1.818959838063819e-06 
-3.810171769530037e-06 
-1.818959838063819e-06 
3.810171769530037e-06 
-5.255341072797826e-06 
0 
-1.818959838063819e-06 
-3.810171769530037e-06 
0.0001348263675176796 
-0.001319993929033985 
-0.001270949791596344 
0 
0.0001348263675176796 
0.001319993929033985 
-0.01380372701238001 
-0.00290821180371792 
-0.01745905109761802 
0 
-0.01380372701238001 
0.00290821180371792 
0.001131649311700974 
-0.0009297028537570744 
-0.0003223587466026284 
0 
0.001131649311700974 
0.0009297028537570744 
-0.005734146680851819 
0.0008422082567734703 
-0.004835019490963308 
0 
-0.005734146680851819 
-0.0008422082567734703 
0.0002566643939651442 
-0.002479936597572069 
-0.001121649566160925 
0 
0.0002566643939651442 
0.002479936597572069 
-1.818959838063819e-06 
3.810171769530037e-06 
-5.255341072797826e-06 
0 
-1.818959838063819e-06 
-3.810171769530037e-06 
-1.818959838063819e-06 
3.810171769530037e-06 
-5.255341072797826e-06 
0 
-1.818959838063819e-06 
-3.810171769530037e-06 
-1.818959838063819e-06 
3.810171769530037e-06 
-5.255341072797826e-06 
0 
-1.818959838063819e-06 
-3.810171769530037e-06 
-1.818959838063819e-06 
3.810171769530037e-06 
-5.255341072797826e-06 
0 
-1.818959838063819e-06 
-3.810171769530037e-06 
-1.818959838063819e-06 
3.810171769530037e-06 
-5.255341072797826e-06 
0 
-1.818959838063819e-06 
-3.810171769530037e-06 
-1.818959838063819e-06 
3.810171769530037e-06 
-5.255341072797826e-06 
0 
-1.818959838063819e-06 
-3.810171769530037e-06 
-1.818959838063819e-06 
3.810171769530037e-06 
-5.255341072797826e-06 
0 
-1.818959838063819e-06 
-3.810171769530037e-06 
-1.818959838063819e-06 
3.810171769530037e-06 
-5.255341072797826e-06 
0 
-1.818959838063819e-06 
-3.810171769530037e-06 
-1.818959838063819e-06 
3.810171769530037e-06 
-5.255341072797826e-06 
0 
-1.818959838063819e-06 
-3.810171769530037e-06 
-1.818959838063819e-06 
3.810171769530037e-06 
-5.255341072797826e-06 
0 
-1.818959838063819e-06 
-3.810171769530037e-06 
-1.818959838063819e-06 
3.810171769530037e-06 
-5.255341072797826e-06 
0 
-1.818959838063819e-06 
-3.810171769530037e-06 
0.001565650908271101 
-0.002303900470750836 
0.0005911447764682232 
0 
0.001565650908271101 
0.002303900470750836 
-0.01007932415386749 
-0.00067454126862726 
-0.0110484396098103 
0 
-0.01007932415386749 
0.00067454126862726 
-0.003276810858628633 
-0.0008829091657080372 
-0.005088736321493697 
0 
-0.003276810858628633 
0.0008829091657080372 
-0.009260703592386873 
0.0009071538068361099 
-0.008840031211956785 
0 
-0.009260703592386873 
-0.0009071538068361099 
-0.002051373917227293 
-0.002108633820896833 
-0.00334801222636764 
0 
-0.002051373917227293 
0.002108633820896833 
-1.818959838063819e-06 
3.810171769530037e-06 
-5.255341072797826e-06 
0 
-1.818959838063819e-06 
-3.810171769530037e-06 
-1.818959838063819e-06 
3.810171769530037e-06 
-5.255341072797826e-06 
0 
-1.818959838063819e-06 
-3.810171769530037e-06 
-1.818959838063819e-06 
3.810171769530037e-06 
-5.255341072797826e-06 
0 
-1.818959838063819e-06 
-3.810171769530037e-06 
-1.818959838063819e-06 
3.810171769530037e-06 
-5.255341072797826e-06 
0 
-1.818959838063819e-06 
-3.810171769530037e-06 
-1.818959838063819e-06 
3.810171769530037e-06 
-5.255341072797826e-06 
0 
-1.818959838063819e-06 
-3.810171769530037e-06 
-1.818959838063819e-06 
3.810171769530037e-06 
-5.255341072797826e-06 
0 
-1.818959838063819e-06 
-3.810171769530037e-06 
-1.818959838063819e-06 
3.810171769530037e-06 
-5.255341072797826e-06 
0 
-1.818959838063819e-06 
-3.810171769530037e-06 
-1.818959838063819e-06 
3.810171769530037e-06 
-5.255341072797826e-06 
0 
-1.818959838063819e-06 
-3.810171769530037e-06 
-1.818959838063819e-06 
3.810171769530037e-06 
-5.255341072797826e-06 
0 
-1.818959838063819e-06 
-3.810171769530037e-06 
-1.818959838063819e-06 
3.810171769530037e-06 
-5.255341072797826e-06 
0 
-1.818959838063819e-06 
-3.810171769530037e-06 
-1.818959838063819e-06 
3.810171769530037e-06 
-5.255341072797826e-06 
0 
-1.818959838063819e-06 
-3.810171769530037e-06 
0.002779056427534985 
-0.001636566502389951 
0.002569248037749029 
0 
0.002779056427534985 
0.001636566502389951 
-0.01056654491924685 
0.001286429799951834 
-0.009439761940713842 
0 
-0.01056654491924685 
-0.001286429799951834 
-0.003275363642545818 
0.0004799891492768963 
-0.004516128148832003 
0 
-0.003275363642545818 
-0.0004799891492768963 
-0.007164817513078073 
0.00050831251841336 
-0.007251916948802833 
0 
-0.007164817513078073 
-0.00050831251841336 
-0.00351415167707936 
-0.001616501511457997 
-0.005074081949136529 
0 
-0.00351415167707936 
0.001616501511457997 
-1.818959838063819e-06 
3.810171769530037e-06 
-5.255341072797826e-06 
0 
-1.818959838063819e-06 
-3.810171769530037e-06 
-1.818959838063819e-06 
3.810171769530037e-06 
-5.255341072797826e-06 
0 
-1.818959838063819e-06 
-3.810171769530037e-06 
-1.818959838063819e-06 
3.810171769530037e-06 
-5.255341072797826e-06 
0 
-1.818959838063819e-06 
-3.810171769530037e-06 
-1.818959838063819e-06 
3.810171769530037e-06 
-5.255341072797826e-06 
0 
-1.818959838063819e-06 
-3.810171769530037e-06 
-1.818959838063819e-06 
3.810171769530037e-06 
-5.255341072797826e-06 
0 
-1.818959838063819e-06 
-3.810171769530037e-06 
-1.818959838063819e-06 
3.810171769530037e-06 
-5.255341072797826e-06 
0 
-1.818959838063819e-06 
-3.810171769530037e-06 
-1.818959838063819e-06 
3.810171769530037e-06 
-5.255341072797826e-06 
0 
-1.818959838063819e-06 
-3.810171769530037e-06 
-1.818959838063819e-06 
3.810171769530037e-06 
-5.255341072797826e-06 
0 
-1.818959838063819e-06 
-3.810171769530037e-06 
-1.818959838063819e-06 
3.810171769530037e-06 
-5.255341072797826e-06 
0 
-1.818959838063819e-06 
-3.810171769530037e-06 
-1.818959838063819e-06 
3.810171769530037e-06 
-5.255341072797826e-06 
0 
-1.818959838063819e-06 
-3.810171769530037e-06 
-1.818959838063819e-06 
3.810171769530037e-06 
-5.255341072797826e-06 
0 
-1.818959838063819e-06 
-3.810171769530037e-06 
0.01532741449673578 
-0.004616125941966911 
0.01600185249726827 
0 
0.01532741449673578 
0.004616125941966911 
-0.006703213532477378 
-0.001700796531475651 
-0.007402867413714352 
0 
-0.006703213532477378 
0.001700796531475651 
-0.006823638447956255 
0.00238251358188725 
-0.007641177748143214 
0 
-0.006823638447956255 
-0.00238251358188725 
-0.003037411878871249 
0.0008062629306349769 
-0.002536932682808331 
0 
-0.003037411878871249 
-0.0008062629306349769 
-0.008146202332682801 
0.001180859922735417 
-0.009681008871078384 
0 
-0.008146202332682801 
-0.001180859922735417 
-1.818959838063819e-06 
3.810171769530037e-06 
-5.255341072797826e-06 
0 
-1.818959838063819e-06 
-3.810171769530037e-06 
-1.818959838063819e-06 
3.810171769530037e-06 
-5.255341072797826e-06 
0 
-1.818959838063819e-06 
-3.810171769530037e-06 
-1.818959838063819e-06 
3.810171769530037e-06 
-5.255341072797826e-06 
0 
-1.818959838063819e-06 
-3.810171769530037e-06 
-1.818959838063819e-06 
3.810171769530037e-06 
-5.255341072797826e-06 
0 
-1.818959838063819e-06 
-3.810171769530037e-06 
-1.818959838063819e-06 
3.810171769530037e-06 
-5.255341072797826e-06 
0 
-1.818959838063819e-06 
-3.810171769530037e-06 
-1.818959838063819e-06 
3.810171769530037e-06 
-5.255341072797826e-06 
0 
-1.818959838063819e-06 
-3.810171769530037e-06 
-1.818959838063819e-06 
3.810171769530037e-06 
-5.255341072797826e-06 
0 
-1.818959838063819e-06 
-3.810171769530037e-06 
-1.818959838063819e-06 
3.810171769530037e-06 
-5.255341072797826e-06 
0 
-1.818959838063819e-06 
-3.810171769530037e-06 
-1.818959838063819e-06 
3.810171769530037e-06 
-5.255341072797826e-06 
0 
-1.818959838063819e-06 
-3.810171769530037e-06 
-1.818959838063819e-06 
3.810171769530037e-06 
-5.255341072797826e-06 
0 
-1.818959838063819e-06 
-3.810171769530037e-06 
-1.818959838063819e-06 
3.810171769530037e-06 
-5.255341072797826e-06 
0 
-1.818959838063819e-06 
-3.810171769530037e-06 
-0.001178843657303092 
-0.003094771861869916 
-0.002504400255941906 
0 
-0.001178843657303092 
0.003094771861869916 
0.003628789047691639 
-0.001044145585975385 
0.004767363468034489 
0 
0.003628789047691639 
0.001044145585975385 
-0.01556972648687822 
0.002188311506198203 
-0.01732816244230753 
0 
-0.01556972648687822 
-0.002188311506198203 
-0.01489497362514824 
-0.005902361737796587 
-0.01896929233270495 
0 
-0.01489497362514824 
0.005902361737796587 
-0.0005275605371237408 
-0.0002086156897781989 
-0.001518353943018605 
0 
-0.0005275605371237408 
0.0002086156897781989 
-1.818959838063819e-06 
3.810171769530037e-06 
-5.255341072797826e-06 
0 
-1.818959838063819e-06 
-3.810171769530037e-06 
-1.818959838063819e-06 
3.810171769530037e-06 
-5.255341072797826e-06 
0 
-1.818959838063819e-06 
-3.810171769530037e-06 
-1.818959838063819e-06 
3.810171769530037e-06 
-5.255341072797826e-06 
0 
-1.818959838063819e-06 
-3.810171769530037e-06 
-1.818959838063819e-06 
3.810171769530037e-06 
-5.255341072797826e-06 
0 
-1.818959838063819e-06 
-3.810171769530037e-06 
-1.818959838063819e-06 
3.810171769530037e-06 
-5.255341072797826e-06 
0 
-1.818959838063819e-06 
-3.810171769530037e-06 
-1.818959838063819e-06 
3.810171769530037e-06 
-5.255341072797826e-06 
0 
-1.818959838063819e-06 
-3.810171769530037e-06 
-1.818959838063819e-06 
3.810171769530037e-06 
-5.255341072797826e-06 
0 
-1.818959838063819e-06 
-3.810171769530037e-06 
-1.818959838063819e-06 
3.810171769530037e-06 
-5.255341072797826e-06 
0 
-1.818959838063819e-06 
-3.810171769530037e-06 
-1.818959838063819e-06 
3.810171769530037e-06 
-5.255341072797826e-06 
0 
-1.818959838063819e-06 
-3.810171769530037e-06 
-1.818959838063819e-06 
3.810171769530037e-06 
-5.255341072797826e-06 
0 
-1.818959838063819e-06 
-3.810171769530037e-06 
-1.818959838063819e-06 
3.810171769530037e-06 
-5.255341072797826e-06 
0 
-1.818959838063819e-06 
-3.810171769530037e-06 
-0.008189559243125874 
-0.001545322770469023 
-0.01001982139980943 
0 
-0.008189559243125874 
0.001545322770469023 
-0.006375516340231393 
0.002297555732212736 
-0.005838035646961025 
0 
-0.006375516340231393 
-0.002297555732212736 
0.00411496669309366 
-0.001026644175167064 
0.003523715555805395 
0 
0.00411496669309366 
0.001026644175167064 
0.00056998749023692 
-0.001394028126019106 
0.0001590344718431297 
0 
0.00056998749023692 
0.001394028126019106 
-0.005514365387863856 
-9.573623337444488e-05 
-0.007766768757115435 
0 
-0.005514365387863856 
9.573623337444488e-05 
-1.818959838063819e-06 
3.810171769530037e-06 
-5.255341072797826e-06 
0 
-1.818959838063819e-06 
-3.810171769530037e-06 
-1.818959838063819e-06 
3.810171769530037e-06 
-5.255341072797826e-06 
0 
-1.818959838063819e-06 
-3.810171769530037e-06 
-1.818959838063819e-06 
3.810171769530037e-06 
-5.255341072797826e-06 
0 
-1.818959838063819e-06 
-3.810171769530037e-06 
-1.818959838063819e-06 
3.810171769530037e-06 
-5.255341072797826e-06 
0 
-1.818959838063819e-06 
-3.810171769530037e-06 
-1.818959838063819e-06 
3.810171769530037e-06 
-5.255341072797826e-06 
0 
-1.818959838063819e-06 
-3.810171769530037e-06 
-1.818959838063819e-06 
3.810171769530037e-06 
-5.255341072797826e-06 
0 
-1.818959838063819e-06 
-3.810171769530037e-06 
-1.818959838063819e-06 
3.810171769530037e-06 
-5.255341072797826e-06 
0 
-1.818959838063819e-06 
-3.810171769530037e-06 
-1.818959838063819e-06 
3.810171769530037e-06 
-5.255341072797826e-06 
0 
-1.818959838063819e-06 
-3.810171769530037e-06 
-1.818959838063819e-06 
3.810171769530037e-06 
-5.255341072797826e-06 
0 
-1.818959838063819e-06 
-3.810171769530037e-06 
-1.818959838063819e-06 
3.810171769530037e-06 
-5.255341072797826e-06 
0 
-1.818959838063819e-06 
-3.810171769530037e-06 
-1.818959838063819e-06 
3.810171769530037e-06 
-5.255341072797826e-06 
0 
-1.818959838063819e-06 
-3.810171769530037e-06 
0.0003284940369150964 
-0.001043535584049134 
-0.001027184722971404 
0 
0.0003284940369150964 
0.001043535584049134 
-0.009919664932643405 
-0.003471431995422495 
-0.01310361234152628 
0 
-0.009919664932643405 
0.003471431995422495 
0.00276270907609484 
-0.002883266234806925 
0.001729986313667593 
0 
0.00276270907609484 
0.002883266234806925 
-0.001171801427979735 
0.0008035482086849209 
-0.0007925906994275348 
0 
-0.001171801427979735 
-0.0008035482086849209 
-0.007913640858214622 
-0.0005093045215145046 
-0.01062936049095417 
0 
-0.007913640858214622 
0.0005093045215145046 
-1.818959838063819e-06 
3.810171769530037e-06 
-5.255341072797826e-06 
0 
-1.818959838063819e-06 
-3.810171769530037e-06 
-1.818959838063819e-06 
3.810171769530037e-06 
-5.255341072797826e-06 
0 
-1.818959838063819e-06 
-3.810171769530037e-06 
-1.818959838063819e-06 
3.810171769530037e-06 
-5.255341072797826e-06 
0 
-1.818959838063819e-06 
-3.810171769530037e-06 
-1.818959838063819e-06 
3.810171769530037e-06 
-5.255341072797826e-06 
0 
-1.818959838063819e-06 
-3.810171769530037e-06 
-1.818959838063819e-06 
3.810171769530037e-06 
-5.255341072797826e-06 
0 
-1.818959838063819e-06 
-3.810171769530037e-06 
-1.818959838063819e-06 
3.810171769530037e-06 
-5.255341072797826e-06 
0 
-1.818959838063819e-06 
-3.810171769530037e-06 
-1.818959838063819e-06 
3.810171769530037e-06 
-5.255341072797826e-06 
0 
-1.818959838063819e-06 
-3.810171769530037e-06 
-1.818959838063819e-06 
3.810171769530037e-06 
-5.255341072797826e-06 
0 
-1.818959838063819e-06 
-3.810171769530037e-06 
-1.818959838063819e-06 
3.810171769530037e-06 
-5.255341072797826e-06 
0 
-1.818959838063819e-06 
-3.810171769530037e-06 
-1.818959838063819e-06 
3.810171769530037e-06 
-5.255341072797826e-06 
0 
-1.818959838063819e-06 
-3.810171769530037e-06 
-1.818959838063819e-06 
3.810171769530037e-06 
-5.255341072797826e-06 
0 
-1.818959838063819e-06 
-3.810171769530037e-06 
0.003778718917021197 
-0.003844505759185118 
0.002892987160048669 
0 
0.003778718917021197 
0.003844505759185118 
-0.01179206822330651 
-0.001987153966195454 
-0.01411400307430301 
0 
-0.01179206822330651 
0.001987153966195454 
-0.004937843913498077 
-0.000447273807510052 
-0.007278668594207449 
0 
-0.004937843913498077 
0.000447273807510052 
-0.006536699339237692 
0.001553256682791774 
-0.006543798896459539 
0 
-0.006536699339237692 
-0.001553256682791774 
-8.815105228403449e-05 
-0.002483765458440675 
-0.001863602657442193 
0 
-8.815105228403449e-05 
0.002483765458440675 
-1.818959838063819e-06 
3.810171769530037e-06 
-5.255341072797826e-06 
0 
-1.818959838063819e-06 
-3.810171769530037e-06 
-1.818959838063819e-06 
3.810171769530037e-06 
-5.255341072797826e-06 
0 
-1.818959838063819e-06 
-3.810171769530037e-06 
-1.818959838063819e-06 
3.810171769530037e-06 
-5.255341072797826e-06 
0 
-1.818959838063819e-06 
-3.810171769530037e-06 
-1.818959838063819e-06 
3.810171769530037e-06 
-5.255341072797826e-06 
0 
-1.818959838063819e-06 
-3.810171769530037e-06 
-1.818959838063819e-06 
3.810171769530037e-06 
-5.255341072797826e-06 
0 
-1.818959838063819e-06 
-3.810171769530037e-06 
-1.818959838063819e-06 
3.810171769530037e-06 
-5.255341072797826e-06 
0 
-1.818959838063819e-06 
-3.810171769530037e-06 
-1.818959838063819e-06 
3.810171769530037e-06 
-5.255341072797826e-06 
0 
-1.818959838063819e-06 
-3.810171769530037e-06 
-1.818959838063819e-06 
3.810171769530037e-06 
-5.255341072797826e-06 
0 
-1.818959838063819e-06 
-3.810171769530037e-06 
-1.818959838063819e-06 
3.810171769530037e-06 
-5.255341072797826e-06 
0 
-1.818959838063819e-06 
-3.810171769530037e-06 
-1.818959838063819e-06 
3.810171769530037e-06 
-5.255341072797826e-06 
0 
-1.818959838063819e-06 
-3.810171769530037e-06 
-1.818959838063819e-06 
3.810171769530037e-06 
-5.255341072797826e-06 
0 
-1.818959838063819e-06 
-3.810171769530037e-06 
0.0008415487216777947 
-0.003092866503087954 
-0.0007563794329688303 
0 
0.0008415487216777947 
0.003092866503087954 
-0.009499417142565593 
-0.001743300273778158 
-0.01098937935573245 
0 
-0.009499417142565593 
0.001743300273778158 
-0.007810023821256788 
0.0008559414878449971 
-0.01058323437963245 
0 
-0.007810023821256788 
-0.0008559414878449971 
-0.01194008217037099 
0.0003604917273699663 
-0.01167230741235134 
0 
-0.01194008217037099 
-0.0003604917273699663 
-0.004980075661113383 
-0.00350567836572301 
-0.007313420896135002 
0 
-0.004980075661113383 
0.00350567836572301 
-1.818959838063819e-06 
3.810171769530037e-06 
-5.255341072797826e-06 
0 
-1.818959838063819e-06 
-3.810171769530037e-06 
-1.818959838063819e-06 
3.810171769530037e-06 
-5.255341072797826e-06 
0 
-1.818959838063819e-06 
-3.810171769530037e-06 
-1.818959838063819e-06 
3.810171769530037e-06 
-5.255341072797826e-06 
0 
-1.818959838063819e-06 
-3.810171769530037e-06 
-1.818959838063819e-06 
3.810171769530037e-06 
-5.255341072797826e-06 
0 
-1.818959838063819e-06 
-3.810171769530037e-06 
-1.818959838063819e-06 
3.810171769530037e-06 
-5.255341072797826e-06 
0 
-1.818959838063819e-06 
-3.810171769530037e-06 
-1.818959838063819e-06 
3.810171769530037e-06 
-5.255341072797826e-06 
0 
-1.818959838063819e-06 
-3.810171769530037e-06 
-1.818959838063819e-06 
3.810171769530037e-06 
-5.255341072797826e-06 
0 
-1.818959838063819e-06 
-3.810171769530037e-06 
-1.818959838063819e-06 
3.810171769530037e-06 
-5.255341072797826e-06 
0 
-1.818959838063819e-06 
-3.810171769530037e-06 
-1.818959838063819e-06 
3.810171769530037e-06 
-5.255341072797826e-06 
0 
-1.818959838063819e-06 
-3.810171769530037e-06 
-1.818959838063819e-06 
3.810171769530037e-06 
-5.255341072797826e-06 
0 
-1.818959838063819e-06 
-3.810171769530037e-06 
-1.818959838063819e-06 
3.810171769530037e-06 
-5.255341072797826e-06 
0 
-1.818959838063819e-06 
-3.810171769530037e-06 
-0.001178974382401055 
-0.003038624994720614 
-0.002705209730851762 
0 
-0.001178974382401055 
0.003038624994720614 
-0.007416194482215898 
0.001431971560162125 
-0.006433997645675937 
0 
-0.007416194482215898 
-0.001431971560162125 
-0.01094794882381144 
0.0003318242140468485 
-0.01380117670236479 
0 
-0.01094794882381144 
-0.0003318242140468485 
-0.01597637734008067 
-0.003442981827073229 
-0.01911225899010378 
0 
-0.01597637734008067 
0.003442981827073229 
-0.006681986007988517 
-0.002936399538476559 
-0.009391956453751803 
0 
-0.006681986007988517 
0.002936399538476559 
-1.818959838063819e-06 
3.810171769530037e-06 
-5.255341072797826e-06 
0 
-1.818959838063819e-06 
-3.810171769530037e-06 
-1.818959838063819e-06 
3.810171769530037e-06 
-5.255341072797826e-06 
0 
-1.818959838063819e-06 
-3.810171769530037e-06 
-1.818959838063819e-06 
3.810171769530037e-06 
-5.255341072797826e-06 
0 
-1.818959838063819e-06 
-3.810171769530037e-06 
-1.818959838063819e-06 
3.810171769530037e-06 
-5.255341072797826e-06 
0 
-1.818959838063819e-06 
-3.810171769530037e-06 
-1.818959838063819e-06 
3.810171769530037e-06 
-5.255341072797826e-06 
0 
-1.818959838063819e-06 
-3.810171769530037e-06 
-1.818959838063819e-06 
3.810171769530037e-06 
-5.255341072797826e-06 
0 
-1.818959838063819e-06 
-3.810171769530037e-06 
-1.818959838063819e-06 
3.810171769530037e-06 
-5.255341072797826e-06 
0 
-1.818959838063819e-06 
-3.810171769530037e-06 
-1.818959838063819e-06 
3.810171769530037e-06 
-5.255341072797826e-06 
0 
-1.818959838063819e-06 
-3.810171769530037e-06 
-1.818959838063819e-06 
3.810171769530037e-06 
-5.255341072797826e-06 
0 
-1.818959838063819e-06 
-3.810171769530037e-06 
-1.818959838063819e-06 
3.810171769530037e-06 
-5.255341072797826e-06 
0 
-1.818959838063819e-06 
-3.810171769530037e-06 
-1.818959838063819e-06 
3.810171769530037e-06 
-5.255341072797826e-06 
0 
-1.818959838063819e-06 
-3.810171769530037e-06 
0.0001448738756713737 
-0.001745869301344024 
-0.00115378404943294 
0 
0.0001448738756713737 
0.001745869301344024 
-0.009382937609261855 
0.0005145880016127777 
-0.00952654184829063 
0 
-0.009382937609261855 
-0.0005145880016127777 
-0.003603277879783168 
-0.001697769995026693 
-0.00566906584339278 
0 
-0.003603277879783168 
0.001697769995026693 
-0.002555629869703148 
0.002908384329512795 
-0.001015478105539082 
0 
-0.002555629869703148 
-0.002908384329512795 
-0.002499472825007005 
-0.001670767510212519 
-0.004314359241737123 
0 
-0.002499472825007005 
0.001670767510212519 
-1.818959838063819e-06 
3.810171769530037e-06 
-5.255341072797826e-06 
0 
-1.818959838063819e-06 
-3.810171769530037e-06 
-1.818959838063819e-06 
3.810171769530037e-06 
-5.255341072797826e-06 
0 
-1.818959838063819e-06 
-3.810171769530037e-06 
-1.818959838063819e-06 
3.810171769530037e-06 
-5.255341072797826e-06 
0 
-1.818959838063819e-06 
-3.810171769530037e-06 
-1.818959838063819e-06 
3.810171769530037e-06 
-5.255341072797826e-06 
0 
-1.818959838063819e-06 
-3.810171769530037e-06 
-1.818959838063819e-06 
3.810171769530037e-06 
-5.255341072797826e-06 
0 
-1.818959838063819e-06 
-3.810171769530037e-06 
-1.818959838063819e-06 
3.810171769530037e-06 
-5.255341072797826e-06 
0 
-1.818959838063819e-06 
-3.810171769530037e-06 
-1.818959838063819e-06 
3.810171769530037e-06 
-5.255341072797826e-06 
0 
-1.818959838063819e-06 
-3.810171769530037e-06 
-1.818959838063819e-06 
3.810171769530037e-06 
-5.255341072797826e-06 
0 
-1.818959838063819e-06 
-3.810171769530037e-06 
-1.818959838063819e-06 
3.810171769530037e-06 
-5.255341072797826e-06 
0 
-1.818959838063819e-06 
-3.810171769530037e-06 
-1.818959838063819e-06 
3.810171769530037e-06 
-5.255341072797826e-06 
0 
-1.818959838063819e-06 
-3.810171769530037e-06 
-1.818959838063819e-06 
3.810171769530037e-06 
-5.255341072797826e-06 
0 
-1.818959838063819e-06 
-3.810171769530037e-06 
-0.0001139012691758867 
-0.002862570257405007 
-0.001145295932098446 
0 
-0.0001139012691758867 
0.002862570257405007 
-0.007470874957331991 
-0.001278400885011345 
-0.008472272380515148 
0 
-0.007470874957331991 
0.001278400885011345 
-0.0001582654808284117 
0.0008444298898534145 
-0.0007836528754710959 
0 
-0.0001582654808284117 
-0.0008444298898534145 
-0.002517966381211325 
0.0008963013904897167 
-0.0008231550291762864 
0 
-0.002517966381211325 
-0.0008963013904897167 
-0.006646068673129432 
-0.0004682823005189324 
-0.008357764598381815 
0 
-0.006646068673129432 
0.0004682823005189324 
-1.818959838063819e-06 
3.810171769530037e-06 
-5.255341072797826e-06 
0 
-1.818959838063819e-06 
-3.810171769530037e-06 
-1.818959838063819e-06 
3.810171769530037e-06 
-5.255341072797826e-06 
0 
-1.818959838063819e-06 
-3.810171769530037e-06 
-1.818959838063819e-06 
3.810171769530037e-06 
-5.255341072797826e-06 
0 
-1.818959838063819e-06 
-3.810171769530037e-06 
-1.818959838063819e-06 
3.810171769530037e-06 
-5.255341072797826e-06 
0 
-1.818959838063819e-06 
-3.810171769530037e-06 
-1.818959838063819e-06 
3.810171769530037e-06 
-5.255341072797826e-06 
0 
-1.818959838063819e-06 
-3.810171769530037e-06 
-1.818959838063819e-06 
3.810171769530037e-06 
-5.255341072797826e-06 
0 
-1.818959838063819e-06 
-3.810171769530037e-06 
-1.818959838063819e-06 
3.810171769530037e-06 
-5.255341072797826e-06 
0 
-1.818959838063819e-06 
-3.810171769530037e-06 
-1.818959838063819e-06 
3.810171769530037e-06 
-5.255341072797826e-06 
0 
-1.818959838063819e-06 
-3.810171769530037e-06 
-1.818959838063819e-06 
3.810171769530037e-06 
-5.255341072797826e-06 
0 
-1.818959838063819e-06 
-3.810171769530037e-06 
-1.818959838063819e-06 
3.810171769530037e-06 
-5.255341072797826e-06 
0 
-1.818959838063819e-06 
-3.810171769530037e-06 
-1.818959838063819e-06 
3.810171769530037e-06 
-5.255341072797826e-06 
0 
-1.818959838063819e-06 
-3.810171769530037e-06 
0.007003518581442341 
-0.002800154130221644 
0.006518434602798718 
0 
0.007003518581442341 
0.002800154130221644 
0.004109426213700896 
0.0006522502718430272 
0.004513981320626893 
0 
0.004109426213700896 
-0.0006522502718430272 
-0.01400218939736981 
0.001659036297297844 
-0.01599245026281106 
0 
-0.01400218939736981 
-0.001659036297297844 
-0.008269499328801196 
-0.00127393771391623 
-0.008316988808143787 
0 
-0.008269499328801196 
0.00127393771391623 
0.0001622173484761664 
-0.0003447773864159727 
-0.0003016874406439303 
0 
0.0001622173484761664 
0.0003447773864159727 
-1.818959838063819e-06 
3.810171769530037e-06 
-5.255341072797826e-06 
0 
-1.818959838063819e-06 
-3.810171769530037e-06 
-1.818959838063819e-06 
3.810171769530037e-06 
-5.255341072797826e-06 
0 
-1.818959838063819e-06 
-3.810171769530037e-06 
-1.818959838063819e-06 
3.810171769530037e-06 
-5.255341072797826e-06 
0 
-1.818959838063819e-06 
-3.810171769530037e-06 
-1.818959838063819e-06 
3.810171769530037e-06 
-5.255341072797826e-06 
0 
-1.818959838063819e-06 
-3.810171769530037e-06 
-1.818959838063819e-06 
3.810171769530037e-06 
-5.255341072797826e-06 
0 
-1.818959838063819e-06 
-3.810171769530037e-06 
-1.818959838063819e-06 
3.810171769530037e-06 
-5.255341072797826e-06 
0 
-1.818959838063819e-06 
-3.810171769530037e-06 
-1.818959838063819e-06 
3.810171769530037e-06 
-5.255341072797826e-06 
0 
-1.818959838063819e-06 
-3.810171769530037e-06 
-1.818959838063819e-06 
3.810171769530037e-06 
-5.255341072797826e-06 
0 
-1.818959838063819e-06 
-3.810171769530037e-06 
-1.818959838063819e-06 
3.810171769530037e-06 
-5.255341072797826e-06 
0 
-1.818959838063819e-06 
-3.810171769530037e-06 
-1.818959838063819e-06 
3.810171769530037e-06 
-5.255341072797826e-06 
0 
-1.818959838063819e-06 
-3.810171769530037e-06 
-1.818959838063819e-06 
3.810171769530037e-06 
-5.255341072797826e-06 
0 
-1.818959838063819e-06 
-3.810171769530037e-06 
-0.01907512868225499 
0.001775903118086597 
-0.02217667512361723 
0 
-0.01907512868225499 
-0.001775903118086597 
-0.01189195237724227 
2.045722379760995e-05 
-0.01301669789746596 
0 
-0.01189195237724227 
-2.045722379760995e-05 
0.01068280916180772 
-0.006529597778483116 
0.01105364463721296 
0 
0.01068280916180772 
0.006529597778483116 
0.005800578619800939 
0.002897471970293441 
0.008076061018594637 
0 
0.005800578619800939 
-0.002897471970293441 
-0.008956037088448485 
0.001170385372939511 
-0.01158194955305972 
0 
-0.008956037088448485 
-0.001170385372939511 
-1.818959838063819e-06 
3.810171769530037e-06 
-5.255341072797826e-06 
0 
-1.818959838063819e-06 
-3.810171769530037e-06 
-1.818959838063819e-06 
3.810171769530037e-06 
-5.255341072797826e-06 
0 
-1.818959838063819e-06 
-3.810171769530037e-06 
-1.818959838063819e-06 
3.810171769530037e-06 
-5.255341072797826e-06 
0 
-1.818959838063819e-06 
-3.810171769530037e-06 
-1.818959838063819e-06 
3.810171769530037e-06 
-5.255341072797826e-06 
0 
-1.818959838063819e-06 
-3.810171769530037e-06 
-1.818959838063819e-06 
3.810171769530037e-06 
-5.255341072797826e-06 
0 
-1.818959838063819e-06 
-3.810171769530037e-06 
-1.818959838063819e-06 
3.810171769530037e-06 
-5.255341072797826e-06 
0 
-1.818959838063819e-06 
-3.810171769530037e-06 
-1.818959838063819e-06 
3.810171769530037e-06 
-5.255341072797826e-06 
0 
-1.818959838063819e-06 
-3.810171769530037e-06 
-1.818959838063819e-06 
3.810171769530037e-06 
-5.255341072797826e-06 
0 
-1.818959838063819e-06 
-3.810171769530037e-06 
-1.818959838063819e-06 
3.810171769530037e-06 
-5.255341072797826e-06 
0 
-1.818959838063819e-06 
-3.810171769530037e-06 
-1.818959838063819e-06 
3.810171769530037e-06 
-5.255341072797826e-06 
0 
-1.818959838063819e-06 
-3.810171769530037e-06 
-1.818959838063819e-06 
3.810171769530037e-06 
-5.255341072797826e-06 
0 
-1.818959838063819e-06 
-3.810171769530037e-06 
-0.009314190600822388 
-7.358888827869912e-05 
-0.01216063893750098 
0 
-0.009314190600822388 
7.358888827869912e-05 
-0.0128758044011111 
-0.000718398910037832 
-0.01309146140733755 
0 
-0.0128758044011111 
0.000718398910037832 
0.004669443860355621 
-0.003906128179892075 
0.004031007650579896 
0 
0.004669443860355621 
0.003906128179892075 
0.002179904466060601 
0.001636409357414932 
0.004026602959823256 
0 
0.002179904466060601 
-0.001636409357414932 
-0.01047389988554727 
-0.0007931527428918089 
-0.01311007206663373 
0 
-0.01047389988554727 
0.0007931527428918089 
-1.818959838063819e-06 
3.810171769530037e-06 
-5.255341072797826e-06 
0 
-1.818959838063819e-06 
-3.810171769530037e-06 
-1.818959838063819e-06 
3.810171769530037e-06 
-5.255341072797826e-06 
0 
-1.818959838063819e-06 
-3.810171769530037e-06 
-1.818959838063819e-06 
3.810171769530037e-06 
-5.255341072797826e-06 
0 
-1.818959838063819e-06 
-3.810171769530037e-06 
-1.818959838063819e-06 
3.810171769530037e-06 
-5.255341072797826e-06 
0 
-1.818959838063819e-06 
-3.810171769530037e-06 
-1.818959838063819e-06 
3.810171769530037e-06 
-5.255341072797826e-06 
0 
-1.818959838063819e-06 
-3.810171769530037e-06 
-1.818959838063819e-06 
3.810171769530037e-06 
-5.255341072797826e-06 
0 
-1.818959838063819e-06 
-3.810171769530037e-06 
-1.818959838063819e-06 
3.810171769530037e-06 
-5.255341072797826e-06 
0 
-1.818959838063819e-06 
-3.810171769530037e-06 
-1.818959838063819e-06 
3.810171769530037e-06 
-5.255341072797826e-06 
0 
-1.818959838063819e-06 
-3.810171769530037e-06 
-1.818959838063819e-06 
3.810171769530037e-06 
-5.255341072797826e-06 
0 
-1.818959838063819e-06 
-3.810171769530037e-06 
-1.818959838063819e-06 
3.810171769530037e-06 
-5.255341072797826e-06 
0 
-1.818959838063819e-06 
-3.810171769530037e-06 
-1.818959838063819e-06 
3.810171769530037e-06 
-5.255341072797826e-06 
0 
-1.818959838063819e-06 
-3.810171769530037e-06 
-0.0008081067231366005 
-0.003242854274104238 
-0.002537546588215597 
0 
-0.0008081067231366005 
0.003242854274104238 
-0.009629393207658887 
-0.002696012781074061 
-0.01127422756988697 
0 
-0.009629393207658887 
0.002696012781074061 
-0.00644893022480414 
0.0007691734703474685 
-0.008968236471422059 
0 
-0.00644893022480414 
-0.0007691734703474685 
-0.01233555771525713 
-0.004395218286997802 
-0.01538717114107747 
0 
-0.01233555771525713 
0.004395218286997802 
-0.0004389161095613268 
-0.00313776074467025 
-0.002023313823440676 
0 
-0.0004389161095613268 
0.00313776074467025 
-1.818959838063819e-06 
3.810171769530037e-06 
-5.255341072797826e-06 
0 
-1.818959838063819e-06 
-3.810171769530037e-06 
-1.818959838063819e-06 
3.810171769530037e-06 
-5.255341072797826e-06 
0 
-1.818959838063819e-06 
-3.810171769530037e-06 
-1.818959838063819e-06 
3.810171769530037e-06 
-5.255341072797826e-06 
0 
-1.818959838063819e-06 
-3.810171769530037e-06 
-1.818959838063819e-06 
3.810171769530037e-06 
-5.255341072797826e-06 
0 
-1.818959838063819e-06 
-3.810171769530037e-06 
-1.818959838063819e-06 
3.810171769530037e-06 
-5.255341072797826e-06 
0 
-1.818959838063819e-06 
-3.810171769530037e-06 
-1.818959838063819e-06 
3.810171769530037e-06 
-5.255341072797826e-06 
0 
-1.818959838063819e-06 
-3.810171769530037e-06 
-1.818959838063819e-06 
3.810171769530037e-06 
-5.255341072797826e-06 
0 
-1.818959838063819e-06 
-3.810171769530037e-06 
-1.818959838063819e-06 
3.810171769530037e-06 
-5.255341072797826e-06 
0 
-1.818959838063819e-06 
-3.810171769530037e-06 
-1.818959838063819e-06 
3.810171769530037e-06 
-5.255341072797826e-06 
0 
-1.818959838063819e-06 
-3.810171769530037e-06 
-1.818959838063819e-06 
3.810171769530037e-06 
-5.255341072797826e-06 
0 
-1.818959838063819e-06 
-3.810171769530037e-06 
-1.818959838063819e-06 
3.810171769530037e-06 
-5.255341072797826e-06 
0 
-1.818959838063819e-06 
-3.810171769530037e-06 
0.000325134494875131 
-0.002274658491770159 
-0.0009746671874200097 
0 
0.000325134494875131 
0.002274658491770159 
-0.006439624337167842 
-0.0003759380483785132 
-0.006407144720132566 
0 
-0.006439624337167842 
0.0003759380483785132 
-0.005753988883372781 
5.093534313385541e-05 
-0.007699718413410533 
0 
-0.005753988883372781 
-5.093534313385541e-05 
-0.004732870501955344 
0.001368570657404231 
-0.003561302625329609 
0 
-0.004732870501955344 
-0.001368570657404231 
-0.003872366376074357 
-0.001703334082409264 
-0.005744701840573299 
0 
-0.003872366376074357 
0.001703334082409264 
-1.818959838063819e-06 
3.810171769530037e-06 
-5.255341072797826e-06 
0 
-1.818959838063819e-06 
-3.810171769530037e-06 
-1.818959838063819e-06 
3.810171769530037e-06 
-5.255341072797826e-06 
0 
-1.818959838063819e-06 
-3.810171769530037e-06 
-1.818959838063819e-06 
3.810171769530037e-06 
-5.255341072797826e-06 
0 
-1.818959838063819e-06 
-3.810171769530037e-06 
-1.818959838063819e-06 
3.810171769530037e-06 
-5.255341072797826e-06 
0 
-1.818959838063819e-06 
-3.810171769530037e-06 
-1.818959838063819e-06 
3.810171769530037e-06 
-5.255341072797826e-06 
0 
-1.818959838063819e-06 
-3.810171769530037e-06 
-1.818959838063819e-06 
3.810171769530037e-06 
-5.255341072797826e-06 
0 
-1.818959838063819e-06 
-3.810171769530037e-06 
-1.818959838063819e-06 
3.810171769530037e-06 
-5.255341072797826e-06 
0 
-1.818959838063819e-06 
-3.810171769530037e-06 
-1.818959838063819e-06 
3.810171769530037e-06 
-5.255341072797826e-06 
0 
-1.818959838063819e-06 
-3.810171769530037e-06 
-1.818959838063819e-06 
3.810171769530037e-06 
-5.255341072797826e-06 
0 
-1.818959838063819e-06 
-3.810171769530037e-06 
-1.818959838063819e-06 
3.810171769530037e-06 
-5.255341072797826e-06 
0 
-1.818959838063819e-06 
-3.810171769530037e-06 
-1.818959838063819e-06 
3.810171769530037e-06 
-5.255341072797826e-06 
0 
-1.818959838063819e-06 
-3.810171769530037e-06 
0.001952286840550496 
-0.0006859817192697387 
0.001142970819873384 
0 
0.001952286840550496 
0.0006859817192697387 
-0.004974987207171074 
0.0006274913628911187 
-0.005228340384763931 
0 
-0.004974987207171074 
-0.0006274913628911187 
-0.006669356645721328 
3.940427370233311e-05 
-0.008080939313913358 
0 
-0.006669356645721328 
-3.940427370233311e-05 
-0.006292459562315606 
-0.00080375539784777 
-0.006414602434534386 
0 
-0.006292459562315606 
0.00080375539784777 
-0.001745710219146501 
-0.002046580766718296 
-0.003546983492837296 
0 
-0.001745710219146501 
0.002046580766718296 
-1.818959838063819e-06 
3.810171769530037e-06 
-5.255341072797826e-06 
0 
-1.818959838063819e-06 
-3.810171769530037e-06 
-1.818959838063819e-06 
3.810171769530037e-06 
-5.255341072797826e-06 
0 
-1.818959838063819e-06 
-3.810171769530037e-06 
-1.818959838063819e-06 
3.810171769530037e-06 
-5.255341072797826e-06 
0 
-1.818959838063819e-06 
-3.810171769530037e-06 
-1.818959838063819e-06 
3.810171769530037e-06 
-5.255341072797826e-06 
0 
-1.818959838063819e-06 
-3.810171769530037e-06 
-1.818959838063819e-06 
3.810171769530037e-06 
-5.255341072797826e-06 
0 
-1.818959838063819e-06 
-3.810171769530037e-06 
-1.818959838063819e-06 
3.810171769530037e-06 
-5.255341072797826e-06 
0 
-1.818959838063819e-06 
-3.810171769530037e-06 
-1.818959838063819e-06 
3.810171769530037e-06 
-5.255341072797826e-06 
0 
-1.818959838063819e-06 
-3.810171769530037e-06 
-1.818959838063819e-06 
3.810171769530037e-06 
-5.255341072797826e-06 
0 
-1.818959838063819e-06 
-3.810171769530037e-06 
-1.818959838063819e-06 
3.810171769530037e-06 
-5.255341072797826e-06 
0 
-1.818959838063819e-06 
-3.810171769530037e-06 
-1.818959838063819e-06 
3.810171769530037e-06 
-5.255341072797826e-06 
0 
-1.818959838063819e-06 
-3.810171769530037e-06 
-1.818959838063819e-06 
3.810171769530037e-06 
-5.255341072797826e-06 
0 
-1.818959838063819e-06 
-3.810171769530037e-06 
0.001482244835604158 
-0.001151929673663772 
2.92474310612823e-05 
0 
0.001482244835604158 
0.001151929673663772 
-0.007975745320283069 
0.001260664649361336 
-0.007236176130588441 
0 
-0.007975745320283069 
-0.001260664649361336 
-0.00378887399416922 
-0.0003405054649998704 
-0.005565014075758398 
0 
-0.00378887399416922 
0.0003405054649998704 
-0.0001620235773901549 
-0.0008656710081572289 
-0.0005728135732574027 
0 
-0.0001620235773901549 
0.0008656710081572289 
-0.003058812456342974 
-0.002110847779373357 
-0.004708814358341591 
0 
-0.003058812456342974 
0.002110847779373357 
-1.818959838063819e-06 
3.810171769530037e-06 
-5.255341072797826e-06 
0 
-1.818959838063819e-06 
-3.810171769530037e-06 
-1.818959838063819e-06 
3.810171769530037e-06 
-5.255341072797826e-06 
0 
-1.818959838063819e-06 
-3.810171769530037e-06 
-1.818959838063819e-06 
3.810171769530037e-06 
-5.255341072797826e-06 
0 
-1.818959838063819e-06 
-3.810171769530037e-06 
-1.818959838063819e-06 
3.810171769530037e-06 
-5.255341072797826e-06 
0 
-1.818959838063819e-06 
-3.810171769530037e-06 
-1.818959838063819e-06 
3.810171769530037e-06 
-5.255341072797826e-06 
0 
-1.818959838063819e-06 
-3.810171769530037e-06 
-1.818959838063819e-06 
3.810171769530037e-06 
-5.255341072797826e-06 
0 
-1.818959838063819e-06 
-3.810171769530037e-06 
-1.818959838063819e-06 
3.810171769530037e-06 
-5.255341072797826e-06 
0 
-1.818959838063819e-06 
-3.810171769530037e-06 
-1.818959838063819e-06 
3.810171769530037e-06 
-5.255341072797826e-06 
0 
-1.818959838063819e-06 
-3.810171769530037e-06 
-1.818959838063819e-06 
3.810171769530037e-06 
-5.255341072797826e-06 
0 
-1.818959838063819e-06 
-3.810171769530037e-06 
-1.818959838063819e-06 
3.810171769530037e-06 
-5.255341072797826e-06 
0 
-1.818959838063819e-06 
-3.810171769530037e-06 
-1.818959838063819e-06 
3.810171769530037e-06 
-5.255341072797826e-06 
0 
-1.818959838063819e-06 
-3.810171769530037e-06 
-0.003894720607912489 
8.727201763367627e-05 
-0.005849285223873286 
0 
-0.003894720607912489 
-8.727201763367627e-05 
0.0002250430264024597 
-0.0007543154659520111 
-0.0004705941835479037 
0 
0.0002250430264024597 
0.0007543154659520111 
0.006788494118878706 
-0.001192258547620278 
0.006974155189303938 
0 
0.006788494118878706 
0.001192258547620278 
0.004401731030263448 
0.003380713160119743 
0.00726350261753632 
0 
0.004401731030263448 
-0.003380713160119743 
-0.005367046184620727 
0.0006178371440342875 
-0.006704331798008309 
0 
-0.005367046184620727 
-0.0006178371440342875 
-1.818959838063819e-06 
3.810171769530037e-06 
-5.255341072797826e-06 
0 
-1.818959838063819e-06 
-3.810171769530037e-06 
-1.818959838063819e-06 
3.810171769530037e-06 
-5.255341072797826e-06 
0 
-1.818959838063819e-06 
-3.810171769530037e-06 
-1.818959838063819e-06 
3.810171769530037e-06 
-5.255341072797826e-06 
0 
-1.818959838063819e-06 
-3.810171769530037e-06 
-1.818959838063819e-06 
3.810171769530037e-06 
-5.255341072797826e-06 
0 
-1.818959838063819e-06 
-3.810171769530037e-06 
-1.818959838063819e-06 
3.810171769530037e-06 
-5.255341072797826e-06 
0 
-1.818959838063819e-06 
-3.810171769530037e-06 
-1.818959838063819e-06 
3.810171769530037e-06 
-5.255341072797826e-06 
0 
-1.818959838063819e-06 
-3.810171769530037e-06 
-1.818959838063819e-06 
3.810171769530037e-06 
-5.255341072797826e-06 
0 
-1.818959838063819e-06 
-3.810171769530037e-06 
-1.818959838063819e-06 
3.810171769530037e-06 
-5.255341072797826e-06 
0 
-1.818959838063819e-06 
-3.810171769530037e-06 
-1.818959838063819e-06 
3.810171769530037e-06 
-5.255341072797826e-06 
0 
-1.818959838063819e-06 
-3.810171769530037e-06 
-1.818959838063819e-06 
3.810171769530037e-06 
-5.255341072797826e-06 
0 
-1.818959838063819e-06 
-3.810171769530037e-06 
-1.818959838063819e-06 
3.810171769530037e-06 
-5.255341072797826e-06 
0 
-1.818959838063819e-06 
-3.810171769530037e-06 
-0.003008889780503428 
-0.00208709709510695 
-0.004531657941103019 
0 
-0.003008889780503428 
0.00208709709510695 
0.001333184758224956 
-0.002237258534763347 
0.0007416590366837304 
0 
0.001333184758224956 
0.002237258534763347 
-0.01075578529384878 
0.003041788738124223 
-0.01158124418990429 
0 
-0.01075578529384878 
-0.003041788738124223 
-0.007753326615256397 
-0.001606289339665586 
-0.008341801952163688 
0 
-0.007753326615256397 
0.001606289339665586 
0.00254051205279761 
-0.002260197168500352 
0.001767086821502109 
0 
0.00254051205279761 
0.002260197168500352 
-1.818959838063819e-06 
3.810171769530037e-06 
-5.255341072797826e-06 
0 
-1.818959838063819e-06 
-3.810171769530037e-06 
-1.818959838063819e-06 
3.810171769530037e-06 
-5.255341072797826e-06 
0 
-1.818959838063819e-06 
-3.810171769530037e-06 
-1.818959838063819e-06 
3.810171769530037e-06 
-5.255341072797826e-06 
0 
-1.818959838063819e-06 
-3.810171769530037e-06 
-1.818959838063819e-06 
3.810171769530037e-06 
-5.255341072797826e-06 
0 
-1.818959838063819e-06 
-3.810171769530037e-06 
-1.818959838063819e-06 
3.810171769530037e-06 
-5.255341072797826e-06 
0 
-1.818959838063819e-06 
-3.810171769530037e-06 
-1.818959838063819e-06 
3.810171769530037e-06 
-5.255341072797826e-06 
0 
-1.818959838063819e-06 
-3.810171769530037e-06 
-1.818959838063819e-06 
3.810171769530037e-06 
-5.255341072797826e-06 
0 
-1.818959838063819e-06 
-3.810171769530037e-06 
-1.818959838063819e-06 
3.810171769530037e-06 
-5.255341072797826e-06 
0 
-1.818959838063819e-06 
-3.810171769530037e-06 
-1.818959838063819e-06 
3.810171769530037e-06 
-5.255341072797826e-06 
0 
-1.818959838063819e-06 
-3.810171769530037e-06 
-1.818959838063819e-06 
3.810171769530037e-06 
-5.255341072797826e-06 
0 
-1.818959838063819e-06 
-3.810171769530037e-06 
-1.818959838063819e-06 
3.810171769530037e-06 
-5.255341072797826e-06 
0 
-1.818959838063819e-06 
-3.810171769530037e-06 
-0.01166446620590949 
0.0008030311302934194 
-0.01464546931005254 
0 
-0.01166446620590949 
-0.0008030311302934194 
0.006905175823112797 
0.001590706757533452 
0.008171858657131032 
0 
0.006905175823112797 
-0.001590706757533452 
0.0007608587039215985 
-0.002370056190476832 
-0.0004434926372132772 
0 
0.0007608587039215985 
0.002370056190476832 
0.004238260624501345 
0.001491249871004912 
0.005795487333629753 
0 
0.004238260624501345 
-0.001491249871004912 
-0.003938471549680103 
-0.0003618430735440088 
-0.005666694873614235 
0 
-0.003938471549680103 
0.0003618430735440088 
-1.818959838063819e-06 
3.810171769530037e-06 
-5.255341072797826e-06 
0 
-1.818959838063819e-06 
-3.810171769530037e-06 
-1.818959838063819e-06 
3.810171769530037e-06 
-5.255341072797826e-06 
0 
-1.818959838063819e-06 
-3.810171769530037e-06 
-1.818959838063819e-06 
3.810171769530037e-06 
-5.255341072797826e-06 
0 
-1.818959838063819e-06 
-3.810171769530037e-06 
-1.818959838063819e-06 
3.810171769530037e-06 
-5.255341072797826e-06 
0 
-1.818959838063819e-06 
-3.810171769530037e-06 
-1.818959838063819e-06 
3.810171769530037e-06 
-5.255341072797826e-06 
0 
-1.818959838063819e-06 
-3.810171769530037e-06 
-1.818959838063819e-06 
3.810171769530037e-06 
-5.255341072797826e-06 
0 
-1.818959838063819e-06 
-3.810171769530037e-06 
-1.818959838063819e-06 
3.810171769530037e-06 
-5.255341072797826e-06 
0 
-1.818959838063819e-06 
-3.810171769530037e-06 
-1.818959838063819e-06 
3.810171769530037e-06 
-5.255341072797826e-06 
0 
-1.818959838063819e-06 
-3.810171769530037e-06 
-1.818959838063819e-06 
3.810171769530037e-06 
-5.255341072797826e-06 
0 
-1.818959838063819e-06 
-3.810171769530037e-06 
-1.818959838063819e-06 
3.810171769530037e-06 
-5.255341072797826e-06 
0 
-1.818959838063819e-06 
-3.810171769530037e-06 
-1.818959838063819e-06 
3.810171769530037e-06 
-5.255341072797826e-06 
0 
-1.818959838063819e-06 
-3.810171769530037e-06 
-0.01263036866996529 
0.002505449991317953 
-0.01547795560271012 
0 
-0.01263036866996529 
-0.002505449991317953 
-0.004062056480119014 
0.002310409898836796 
-0.003088176716158574 
0 
-0.004062056480119014 
-0.002310409898836796 
0.01039406869494988 
-0.005298990095640306 
0.01004770318415232 
0 
0.01039406869494988 
0.005298990095640306 
0.01107581117636447 
0.002784239297162121 
0.01292592683919569 
0 
0.01107581117636447 
-0.002784239297162121 
-0.006836370226270989 
-0.0003542977403722227 
-0.00929510828454632 
0 
-0.006836370226270989 
0.0003542977403722227 
-1.818959838063819e-06 
3.810171769530037e-06 
-5.255341072797826e-06 
0 
-1.818959838063819e-06 
-3.810171769530037e-06 
-1.818959838063819e-06 
3.810171769530037e-06 
-5.255341072797826e-06 
0 
-1.818959838063819e-06 
-3.810171769530037e-06 
-1.818959838063819e-06 
3.810171769530037e-06 
-5.255341072797826e-06 
0 
-1.818959838063819e-06 
-3.810171769530037e-06 
-1.818959838063819e-06 
3.810171769530037e-06 
-5.255341072797826e-06 
0 
-1.818959838063819e-06 
-3.810171769530037e-06 
-1.818959838063819e-06 
3.810171769530037e-06 
-5.255341072797826e-06 
0 
-1.818959838063819e-06 
-3.810171769530037e-06 
-1.818959838063819e-06 
3.810171769530037e-06 
-5.255341072797826e-06 
0 
-1.818959838063819e-06 
-3.810171769530037e-06 
-1.818959838063819e-06 
3.810171769530037e-06 
-5.255341072797826e-06 
0 
-1.818959838063819e-06 
-3.810171769530037e-06 
-1.818959838063819e-06 
3.810171769530037e-06 
-5.255341072797826e-06 
0 
-1.818959838063819e-06 
-3.810171769530037e-06 
-1.818959838063819e-06 
3.810171769530037e-06 
-5.255341072797826e-06 
0 
-1.818959838063819e-06 
-3.810171769530037e-06 
-1.818959838063819e-06 
3.810171769530037e-06 
-5.255341072797826e-06 
0 
-1.818959838063819e-06 
-3.810171769530037e-06 
-1.818959838063819e-06 
3.810171769530037e-06 
-5.255341072797826e-06 
0 
-1.818959838063819e-06 
-3.810171769530037e-06 
-0.01447640753084617 
0.0008560886215597409 
-0.0167868027551141 
0 
-0.01447640753084617 
-0.0008560886215597409 
-0.002407720233757434 
-0.0009897052090945852 
-0.002576010694242651 
0 
-0.002407720233757434 
0.0009897052090945852 
-0.004275503651129698 
-0.000464867829276259 
-0.005967957599969018 
0 
-0.004275503651129698 
0.000464867829276259 
-0.01014054437581942 
0.0003197845258121512 
-0.009885737178074127 
0 
-0.01014054437581942 
-0.0003197845258121512 
-0.001804694247339179 
-0.002915340640714425 
-0.003066285273471761 
0 
-0.001804694247339179 
0.002915340640714425 
-1.818959838063819e-06 
3.810171769530037e-06 
-5.255341072797826e-06 
0 
-1.818959838063819e-06 
-3.810171769530037e-06 
-1.818959838063819e-06 
3.810171769530037e-06 
-5.255341072797826e-06 
0 
-1.818959838063819e-06 
-3.810171769530037e-06 
-1.818959838063819e-06 
3.810171769530037e-06 
-5.255341072797826e-06 
0 
-1.818959838063819e-06 
-3.810171769530037e-06 
-1.818959838063819e-06 
3.810171769530037e-06 
-5.255341072797826e-06 
0 
-1.818959838063819e-06 
-3.810171769530037e-06 
-1.818959838063819e-06 
3.810171769530037e-06 
-5.255341072797826e-06 
0 
-1.818959838063819e-06 
-3.810171769530037e-06 
-1.818959838063819e-06 
3.810171769530037e-06 
-5.255341072797826e-06 
0 
-1.818959838063819e-06 
-3.810171769530037e-06 
-1.818959838063819e-06 
3.810171769530037e-06 
-5.255341072797826e-06 
0 
-1.818959838063819e-06 
-3.810171769530037e-06 
-1.818959838063819e-06 
3.810171769530037e-06 
-5.255341072797826e-06 
0 
-1.818959838063819e-06 
-3.810171769530037e-06 
-1.818959838063819e-06 
3.810171769530037e-06 
-5.255341072797826e-06 
0 
-1.818959838063819e-06 
-3.810171769530037e-06 
-1.818959838063819e-06 
3.810171769530037e-06 
-5.255341072797826e-06 
0 
-1.818959838063819e-06 
-3.810171769530037e-06 
-1.818959838063819e-06 
3.810171769530037e-06 
-5.255341072797826e-06 
0 
-1.818959838063819e-06 
-3.810171769530037e-06 
-0.006753763583130558 
-0.001979563046287753 
-0.008604250538736797 
0 
-0.006753763583130558 
0.001979563046287753 
-0.004120913368854568 
-0.001600814567198711 
-0.004050579981903402 
0 
-0.004120913368854568 
0.001600814567198711 
-0.01337167342248471 
0.0007226176998027519 
-0.01578924286397814 
0 
-0.01337167342248471 
-0.0007226176998027519 
-0.01425621894472486 
-0.003892283529463051 
-0.01628322524855797 
0 
-0.01425621894472486 
0.003892283529463051 
-0.00162418219928725 
-0.002738882254381531 
-0.002984476042143823 
0 
-0.00162418219928725 
0.002738882254381531 
-1.818959838063819e-06 
3.810171769530037e-06 
-5.255341072797826e-06 
0 
-1.818959838063819e-06 
-3.810171769530037e-06 
-1.818959838063819e-06 
3.810171769530037e-06 
-5.255341072797826e-06 
0 
-1.818959838063819e-06 
-3.810171769530037e-06 
-1.818959838063819e-06 
3.810171769530037e-06 
-5.255341072797826e-06 
0 
-1.818959838063819e-06 
-3.810171769530037e-06 
-1.818959838063819e-06 
3.810171769530037e-06 
-5.255341072797826e-06 
0 
-1.818959838063819e-06 
-3.810171769530037e-06 
-1.818959838063819e-06 
3.810171769530037e-06 
-5.255341072797826e-06 
0 
-1.818959838063819e-06 
-3.810171769530037e-06 
-1.818959838063819e-06 
3.810171769530037e-06 
-5.255341072797826e-06 
0 
-1.818959838063819e-06 
-3.810171769530037e-06 
-1.818959838063819e-06 
3.810171769530037e-06 
-5.255341072797826e-06 
0 
-1.818959838063819e-06 
-3.810171769530037e-06 
-1.818959838063819e-06 
3.810171769530037e-06 
-5.255341072797826e-06 
0 
-1.818959838063819e-06 
-3.810171769530037e-06 
-1.818959838063819e-06 
3.810171769530037e-06 
-5.255341072797826e-06 
0 
-1.818959838063819e-06 
-3.810171769530037e-06 
-1.818959838063819e-06 
3.810171769530037e-06 
-5.255341072797826e-06 
0 
-1.818959838063819e-06 
-3.810171769530037e-06 
-1.818959838063819e-06 
3.810171769530037e-06 
-5.255341072797826e-06 
0 
-1.818959838063819e-06 
-3.810171769530037e-06 
-0.003628381961854278 
-0.0005332369153715094 
-0.005494090707918474 
0 
-0.003628381961854278 
0.0005332369153715094 
0.002990514040778136 
-0.001443427169669545 
0.002654099892609724 
0 
0.002990514040778136 
0.001443427169669545 
-0.009913373915270286 
0.0008500496911375486 
-0.01164166643125074 
0 
-0.009913373915270286 
-0.0008500496911375486 
-0.006292289849512364 
-0.001224160813577444 
-0.007033960422787702 
0 
-0.006292289849512364 
0.001224160813577444 
0.002682179655297042 
-0.003262230453252858 
0.001038403262954617 
0 
0.002682179655297042 
0.003262230453252858 
-1.818959838063819e-06 
3.810171769530037e-06 
-5.255341072797826e-06 
0 
-1.818959838063819e-06 
-3.810171769530037e-06 
-1.818959838063819e-06 
3.810171769530037e-06 
-5.255341072797826e-06 
0 
-1.818959838063819e-06 
-3.810171769530037e-06 
-1.818959838063819e-06 
3.810171769530037e-06 
-5.255341072797826e-06 
0 
-1.818959838063819e-06 
-3.810171769530037e-06 
-1.818959838063819e-06 
3.810171769530037e-06 
-5.255341072797826e-06 
0 
-1.818959838063819e-06 
-3.810171769530037e-06 
-1.818959838063819e-06 
3.810171769530037e-06 
-5.255341072797826e-06 
0 
-1.818959838063819e-06 
-3.810171769530037e-06 
-1.818959838063819e-06 
3.810171769530037e-06 
-5.255341072797826e-06 
0 
-1.818959838063819e-06 
-3.810171769530037e-06 
-1.818959838063819e-06 
3.810171769530037e-06 
-5.255341072797826e-06 
0 
-1.818959838063819e-06 
-3.810171769530037e-06 
-1.818959838063819e-06 
3.810171769530037e-06 
-5.255341072797826e-06 
0 
-1.818959838063819e-06 
-3.810171769530037e-06 
-1.818959838063819e-06 
3.810171769530037e-06 
-5.255341072797826e-06 
0 
-1.818959838063819e-06 
-3.810171769530037e-06 
-1.818959838063819e-06 
3.810171769530037e-06 
-5.255341072797826e-06 
0 
-1.818959838063819e-06 
-3.810171769530037e-06 
-1.818959838063819e-06 
3.810171769530037e-06 
-5.255341072797826e-06 
0 
-1.818959838063819e-06 
-3.810171769530037e-06 
-0.005434388016293395 
0.0004121591041897933 
-0.007195620959138989 
0 
-0.005434388016293395 
-0.0004121591041897933 
-0.007897472932639819 
0.0004393624087799377 
-0.00913228741340162 
0 
-0.007897472932639819 
-0.0004393624087799377 
-0.001551459509448861 
0.0007116163372753654 
-0.003068383775465358 
0 
-0.001551459509448861 
-0.0007116163372753654 
0.002616378227983615 
0.001465166338481681 
0.0038456186016468 
0 
0.002616378227983615 
-0.001465166338481681 
0.003651764526134762 
-0.004020727356028834 
0.002986349738489434 
0 
0.003651764526134762 
0.004020727356028834 
-1.818959838063819e-06 
3.810171769530037e-06 
-5.255341072797826e-06 
0 
-1.818959838063819e-06 
-3.810171769530037e-06 
-1.818959838063819e-06 
3.810171769530037e-06 
-5.255341072797826e-06 
0 
-1.818959838063819e-06 
-3.810171769530037e-06 
-1.818959838063819e-06 
3.810171769530037e-06 
-5.255341072797826e-06 
0 
-1.818959838063819e-06 
-3.810171769530037e-06 
-1.818959838063819e-06 
3.810171769530037e-06 
-5.255341072797826e-06 
0 
-1.818959838063819e-06 
-3.810171769530037e-06 
-1.818959838063819e-06 
3.810171769530037e-06 
-5.255341072797826e-06 
0 
-1.818959838063819e-06 
-3.810171769530037e-06 
-1.818959838063819e-06 
3.810171769530037e-06 
-5.255341072797826e-06 
0 
-1.818959838063819e-06 
-3.810171769530037e-06 
-1.818959838063819e-06 
3.810171769530037e-06 
-5.255341072797826e-06 
0 
-1.818959838063819e-06 
-3.810171769530037e-06 
-1.818959838063819e-06 
3.810171769530037e-06 
-5.255341072797826e-06 
0 
-1.818959838063819e-06 
-3.810171769530037e-06 
-1.818959838063819e-06 
3.810171769530037e-06 
-5.255341072797826e-06 
0 
-1.818959838063819e-06 
-3.810171769530037e-06 
-1.818959838063819e-06 
3.810171769530037e-06 
-5.255341072797826e-06 
0 
-1.818959838063819e-06 
-3.810171769530037e-06 
-1.818959838063819e-06 
3.810171769530037e-06 
-5.255341072797826e-06 
0 
-1.818959838063819e-06 
-3.810171769530037e-06 
-0.008100116075323089 
-0.001792940108423022 
-0.010727263427128 
0 
-0.008100116075323089 
0.001792940108423022 
-0.01660979857034776 
-0.0008692509381674382 
-0.01770376493478847 
0 
-0.01660979857034776 
0.0008692509381674382 
0.002463034125902097 
0.0006914142187732515 
0.00189499305206118 
0 
0.002463034125902097 
-0.0006914142187732515 
0.008494106572126927 
0.001468003655981367 
0.01032370473466725 
0 
0.008494106572126927 
-0.001468003655981367 
0.002651563467290668 
-0.001192341318774328 
0.002543670861614705 
0 
0.002651563467290668 
0.001192341318774328 
-1.818959838063819e-06 
3.810171769530037e-06 
-5.255341072797826e-06 
0 
-1.818959838063819e-06 
-3.810171769530037e-06 
-1.818959838063819e-06 
3.810171769530037e-06 
-5.255341072797826e-06 
0 
-1.818959838063819e-06 
-3.810171769530037e-06 
-1.818959838063819e-06 
3.810171769530037e-06 
-5.255341072797826e-06 
0 
-1.818959838063819e-06 
-3.810171769530037e-06 
-1.818959838063819e-06 
3.810171769530037e-06 
-5.255341072797826e-06 
0 
-1.818959838063819e-06 
-3.810171769530037e-06 
-1.818959838063819e-06 
3.810171769530037e-06 
-5.255341072797826e-06 
0 
-1.818959838063819e-06 
-3.810171769530037e-06 
-1.818959838063819e-06 
3.810171769530037e-06 
-5.255341072797826e-06 
0 
-1.818959838063819e-06 
-3.810171769530037e-06 
-1.818959838063819e-06 
3.810171769530037e-06 
-5.255341072797826e-06 
0 
-1.818959838063819e-06 
-3.810171769530037e-06 
-1.818959838063819e-06 
3.810171769530037e-06 
-5.255341072797826e-06 
0 
-1.818959838063819e-06 
-3.810171769530037e-06 
-1.818959838063819e-06 
3.810171769530037e-06 
-5.255341072797826e-06 
0 
-1.818959838063819e-06 
-3.810171769530037e-06 
-1.818959838063819e-06 
3.810171769530037e-06 
-5.255341072797826e-06 
0 
-1.818959838063819e-06 
-3.810171769530037e-06 
-1.818959838063819e-06 
3.810171769530037e-06 
-5.255341072797826e-06 
0 
-1.818959838063819e-06 
-3.810171769530037e-06 
0.003164955711369269 
-0.0009955954740819759 
0.002539110827759819 
0 
0.003164955711369269 
0.0009955954740819759 
0.0007273876778489111 
0.0002918870262248425 
0.001070667033835628 
0 
0.0007273876778489111 
-0.0002918870262248425 
-0.004330021176781235 
0.0005243314934560175 
-0.005892812850118716 
0 
-0.004330021176781235 
-0.0005243314934560175 
-0.005175565808522557 
0.0006600323482248942 
-0.004742146704990368 
0 
-0.005175565808522557 
-0.0006600323482248942 
0.00806180315145723 
-0.00220618224007232 
0.008061443493293324 
0 
0.00806180315145723 
0.00220618224007232 
-1.818959838063819e-06 
3.810171769530037e-06 
-5.255341072797826e-06 
0 
-1.818959838063819e-06 
-3.810171769530037e-06 
-1.818959838063819e-06 
3.810171769530037e-06 
-5.255341072797826e-06 
0 
-1.818959838063819e-06 
-3.810171769530037e-06 
-1.818959838063819e-06 
3.810171769530037e-06 
-5.255341072797826e-06 
0 
-1.818959838063819e-06 
-3.810171769530037e-06 
-1.818959838063819e-06 
3.810171769530037e-06 
-5.255341072797826e-06 
0 
-1.818959838063819e-06 
-3.810171769530037e-06 
-1.818959838063819e-06 
3.810171769530037e-06 
-5.255341072797826e-06 
0 
-1.818959838063819e-06 
-3.810171769530037e-06 
-1.818959838063819e-06 
3.810171769530037e-06 
-5.255341072797826e-06 
0 
-1.818959838063819e-06 
-3.810171769530037e-06 
-1.818959838063819e-06 
3.810171769530037e-06 
-5.255341072797826e-06 
0 
-1.818959838063819e-06 
-3.810171769530037e-06 
-1.818959838063819e-06 
3.810171769530037e-06 
-5.255341072797826e-06 
0 
-1.818959838063819e-06 
-3.810171769530037e-06 
-1.818959838063819e-06 
3.810171769530037e-06 
-5.255341072797826e-06 
0 
-1.818959838063819e-06 
-3.810171769530037e-06 
-1.818959838063819e-06 
3.810171769530037e-06 
-5.255341072797826e-06 
0 
-1.818959838063819e-06 
-3.810171769530037e-06 
-1.818959838063819e-06 
3.810171769530037e-06 
-5.255341072797826e-06 
0 
-1.818959838063819e-06 
-3.810171769530037e-06 
-0.01313295267544075 
0.0007571064063612258 
-0.01585423745036763 
0 
-0.01313295267544075 
-0.0007571064063612258 
0.0001918738696227793 
0.005461305584899744 
0.00285693688708289 
0 
0.0001918738696227793 
-0.005461305584899744 
0.003896088854243945 
-0.003482669632051358 
0.003540107097434987 
0 
0.003896088854243945 
0.003482669632051358 
0.007436306538323733 
0.006821252960398849 
0.01206857035830317 
0 
0.007436306538323733 
-0.006821252960398849 
-0.006421369898492798 
-0.001876510412926511 
-0.008456005252162783 
0 
-0.006421369898492798 
0.001876510412926511 
-1.818959838063819e-06 
3.810171769530037e-06 
-5.255341072797826e-06 
0 
-1.818959838063819e-06 
-3.810171769530037e-06 
-1.818959838063819e-06 
3.810171769530037e-06 
-5.255341072797826e-06 
0 
-1.818959838063819e-06 
-3.810171769530037e-06 
-1.818959838063819e-06 
3.810171769530037e-06 
-5.255341072797826e-06 
0 
-1.818959838063819e-06 
-3.810171769530037e-06 
-1.818959838063819e-06 
3.810171769530037e-06 
-5.255341072797826e-06 
0 
-1.818959838063819e-06 
-3.810171769530037e-06 
-1.818959838063819e-06 
3.810171769530037e-06 
-5.255341072797826e-06 
0 
-1.818959838063819e-06 
-3.810171769530037e-06 
-1.818959838063819e-06 
3.810171769530037e-06 
-5.255341072797826e-06 
0 
-1.818959838063819e-06 
-3.810171769530037e-06 
-1.818959838063819e-06 
3.810171769530037e-06 
-5.255341072797826e-06 
0 
-1.818959838063819e-06 
-3.810171769530037e-06 
-1.818959838063819e-06 
3.810171769530037e-06 
-5.255341072797826e-06 
0 
-1.818959838063819e-06 
-3.810171769530037e-06 
-1.818959838063819e-06 
3.810171769530037e-06 
-5.255341072797826e-06 
0 
-1.818959838063819e-06 
-3.810171769530037e-06 
-1.818959838063819e-06 
3.810171769530037e-06 
-5.255341072797826e-06 
0 
-1.818959838063819e-06 
-3.810171769530037e-06 
-1.818959838063819e-06 
3.810171769530037e-06 
-5.255341072797826e-06 
0 
-1.818959838063819e-06 
-3.810171769530037e-06 
-0.01258154722493911 
0.00202963480320392 
-0.01483518941597992 
0 
-0.01258154722493911 
-0.00202963480320392 
-0.001543666814317005 
-0.001587248254019721 
-0.002118676182416417 
0 
-0.001543666814317005 
0.001587248254019721 
0.007827365250385623 
-0.002196212216730672 
0.008203838078278411 
0 
0.007827365250385623 
0.002196212216730672 
-0.007255285439009557 
-0.0002001163496759791 
-0.007474339279940956 
0 
-0.007255285439009557 
0.0002001163496759791 
-0.005547282375404146 
-0.000790776134113718 
-0.007633666290172592 
0 
-0.005547282375404146 
0.000790776134113718 
-1.818959838063819e-06 
3.810171769530037e-06 
-5.255341072797826e-06 
0 
-1.818959838063819e-06 
-3.810171769530037e-06 
-1.818959838063819e-06 
3.810171769530037e-06 
-5.255341072797826e-06 
0 
-1.818959838063819e-06 
-3.810171769530037e-06 
-1.818959838063819e-06 
3.810171769530037e-06 
-5.255341072797826e-06 
0 
-1.818959838063819e-06 
-3.810171769530037e-06 
-1.818959838063819e-06 
3.810171769530037e-06 
-5.255341072797826e-06 
0 
-1.818959838063819e-06 
-3.810171769530037e-06 
-1.818959838063819e-06 
3.810171769530037e-06 
-5.255341072797826e-06 
0 
-1.818959838063819e-06 
-3.810171769530037e-06 
-1.818959838063819e-06 
3.810171769530037e-06 
-5.255341072797826e-06 
0 
-1.818959838063819e-06 
-3.810171769530037e-06 
-1.818959838063819e-06 
3.810171769530037e-06 
-5.255341072797826e-06 
0 
-1.818959838063819e-06 
-3.810171769530037e-06 
-1.818959838063819e-06 
3.810171769530037e-06 
-5.255341072797826e-06 
0 
-1.818959838063819e-06 
-3.810171769530037e-06 
-1.818959838063819e-06 
3.810171769530037e-06 
-5.255341072797826e-06 
0 
-1.818959838063819e-06 
-3.810171769530037e-06 
-1.818959838063819e-06 
3.810171769530037e-06 
-5.255341072797826e-06 
0 
-1.818959838063819e-06 
-3.810171769530037e-06 
-1.818959838063819e-06 
3.810171769530037e-06 
-5.255341072797826e-06 
0 
-1.818959838063819e-06 
-3.810171769530037e-06 
-0.01309664933415034 
4.41663814712229e-06 
-0.01512397668643895 
0 
-0.01309664933415034 
-4.41663814712229e-06 
0.004180368833872548 
0.0002145981748056195 
0.005516444859938444 
0 
0.004180368833872548 
-0.0002145981748056195 
-0.01143100755670085 
0.0006413992635300954 
-0.01354343041516594 
0 
-0.01143100755670085 
-0.0006413992635300954 
-0.01595258663338817 
-0.004785400462079588 
-0.01843098489468627 
0 
-0.01595258663338817 
0.004785400462079588 
0.001458864459753252 
-0.003910903535681189 
0.0003191146381341226 
0 
0.001458864459753252 
0.003910903535681189 
-1.818959838063819e-06 
3.810171769530037e-06 
-5.255341072797826e-06 
0 
-1.818959838063819e-06 
-3.810171769530037e-06 
-1.818959838063819e-06 
3.810171769530037e-06 
-5.255341072797826e-06 
0 
-1.818959838063819e-06 
-3.810171769530037e-06 
-1.818959838063819e-06 
3.810171769530037e-06 
-5.255341072797826e-06 
0 
-1.818959838063819e-06 
-3.810171769530037e-06 
-1.818959838063819e-06 
3.810171769530037e-06 
-5.255341072797826e-06 
0 
-1.818959838063819e-06 
-3.810171769530037e-06 
-1.818959838063819e-06 
3.810171769530037e-06 
-5.255341072797826e-06 
0 
-1.818959838063819e-06 
-3.810171769530037e-06 
-1.818959838063819e-06 
3.810171769530037e-06 
-5.255341072797826e-06 
0 
-1.818959838063819e-06 
-3.810171769530037e-06 
-1.818959838063819e-06 
3.810171769530037e-06 
-5.255341072797826e-06 
0 
-1.818959838063819e-06 
-3.810171769530037e-06 
-1.818959838063819e-06 
3.810171769530037e-06 
-5.255341072797826e-06 
0 
-1.818959838063819e-06 
-3.810171769530037e-06 
-1.818959838063819e-06 
3.810171769530037e-06 
-5.255341072797826e-06 
0 
-1.818959838063819e-06 
-3.810171769530037e-06 
-1.818959838063819e-06 
3.810171769530037e-06 
-5.255341072797826e-06 
0 
-1.818959838063819e-06 
-3.810171769530037e-06 
-1.818959838063819e-06 
3.810171769530037e-06 
-5.255341072797826e-06 
0 
-1.818959838063819e-06 
-3.810171769530037e-06 
-0.01813875403103175 
0.0003896420596016215 
-0.02072270119314393 
0 
-0.01813875403103175 
-0.0003896420596016215 
0.003181571956246635 
-0.002406752192694068 
0.002654508507512256 
0 
0.003181571956246635 
0.002406752192694068 
-0.008878405429225135 
-0.0002815239080684668 
-0.01073602460426962 
0 
-0.008878405429225135 
0.0002815239080684668 
-0.01398901149992862 
-0.002873335450420244 
-0.01603485046327931 
0 
-0.01398901149992862 
0.002873335450420244 
-0.003658079854877014 
-0.003117198564256002 
-0.00534954276249414 
0 
-0.003658079854877014 
0.003117198564256002 
-1.818959838063819e-06 
3.810171769530037e-06 
-5.255341072797826e-06 
0 
-1.818959838063819e-06 
-3.810171769530037e-06 
-1.818959838063819e-06 
3.810171769530037e-06 
-5.255341072797826e-06 
0 
-1.818959838063819e-06 
-3.810171769530037e-06 
-1.818959838063819e-06 
3.810171769530037e-06 
-5.255341072797826e-06 
0 
-1.818959838063819e-06 
-3.810171769530037e-06 
-1.818959838063819e-06 
3.810171769530037e-06 
-5.255341072797826e-06 
0 
-1.818959838063819e-06 
-3.810171769530037e-06 
-1.818959838063819e-06 
3.810171769530037e-06 
-5.255341072797826e-06 
0 
-1.818959838063819e-06 
-3.810171769530037e-06 
-1.818959838063819e-06 
3.810171769530037e-06 
-5.255341072797826e-06 
0 
-1.818959838063819e-06 
-3.810171769530037e-06 
-1.818959838063819e-06 
3.810171769530037e-06 
-5.255341072797826e-06 
0 
-1.818959838063819e-06 
-3.810171769530037e-06 
-1.818959838063819e-06 
3.810171769530037e-06 
-5.255341072797826e-06 
0 
-1.818959838063819e-06 
-3.810171769530037e-06 
-1.818959838063819e-06 
3.810171769530037e-06 
-5.255341072797826e-06 
0 
-1.818959838063819e-06 
-3.810171769530037e-06 
-1.818959838063819e-06 
3.810171769530037e-06 
-5.255341072797826e-06 
0 
-1.818959838063819e-06 
-3.810171769530037e-06 
-1.818959838063819e-06 
3.810171769530037e-06 
-5.255341072797826e-06 
0 
-1.818959838063819e-06 
-3.810171769530037e-06 
-0.01938023393713106 
0.001607120026369565 
-0.02146091552884054 
0 
-0.01938023393713106 
-0.001607120026369565 
0.003523179100430717 
0.0007264008132159002 
0.005119204351710258 
0 
0.003523179100430717 
-0.0007264008132159002 
-0.004682292822012699 
-0.0001400842723799735 
-0.006217043574770261 
0 
-0.004682292822012699 
0.0001400842723799735 
-0.009279584437949734 
-0.0009210612620999968 
-0.009546922375979658 
0 
-0.009279584437949734 
0.0009210612620999968 
-0.001779046498151605 
-0.003495921101336804 
-0.003422434594487964 
0 
-0.001779046498151605 
0.003495921101336804 
-1.818959838063819e-06 
3.810171769530037e-06 
-5.255341072797826e-06 
0 
-1.818959838063819e-06 
-3.810171769530037e-06 
-1.818959838063819e-06 
3.810171769530037e-06 
-5.255341072797826e-06 
0 
-1.818959838063819e-06 
-3.810171769530037e-06 
-1.818959838063819e-06 
3.810171769530037e-06 
-5.255341072797826e-06 
0 
-1.818959838063819e-06 
-3.810171769530037e-06 
-1.818959838063819e-06 
3.810171769530037e-06 
-5.255341072797826e-06 
0 
-1.818959838063819e-06 
-3.810171769530037e-06 
-1.818959838063819e-06 
3.810171769530037e-06 
-5.255341072797826e-06 
0 
-1.818959838063819e-06 
-3.810171769530037e-06 
-1.818959838063819e-06 
3.810171769530037e-06 
-5.255341072797826e-06 
0 
-1.818959838063819e-06 
-3.810171769530037e-06 
-1.818959838063819e-06 
3.810171769530037e-06 
-5.255341072797826e-06 
0 
-1.818959838063819e-06 
-3.810171769530037e-06 
-1.818959838063819e-06 
3.810171769530037e-06 
-5.255341072797826e-06 
0 
-1.818959838063819e-06 
-3.810171769530037e-06 
-1.818959838063819e-06 
3.810171769530037e-06 
-5.255341072797826e-06 
0 
-1.818959838063819e-06 
-3.810171769530037e-06 
-1.818959838063819e-06 
3.810171769530037e-06 
-5.255341072797826e-06 
0 
-1.818959838063819e-06 
-3.810171769530037e-06 
-1.818959838063819e-06 
3.810171769530037e-06 
-5.255341072797826e-06 
0 
-1.818959838063819e-06 
-3.810171769530037e-06 
-0.01410321917644303 
0.003718545054882065 
-0.01568943409249 
0 
-0.01410321917644303 
-0.003718545054882065 
0.001458734515068943 
0.002707129853002118 
0.003356429120417237 
0 
0.001458734515068943 
-0.002707129853002118 
-0.002552738074839932 
-0.0002262275015062021 
-0.004248707384971559 
0 
-0.002552738074839932 
0.0002262275015062021 
0.009778210042436499 
0.005158607097212187 
0.01395235501074565 
0 
0.009778210042436499 
-0.005158607097212187 
0.002810934708338659 
-0.004066798599699188 
0.001911317220372362 
0 
0.002810934708338659 
0.004066798599699188 
-1.818959838063819e-06 
3.810171769530037e-06 
-5.255341072797826e-06 
0 
-1.818959838063819e-06 
-3.810171769530037e-06 
-1.818959838063819e-06 
3.810171769530037e-06 
-5.255341072797826e-06 
0 
-1.818959838063819e-06 
-3.810171769530037e-06 
-1.818959838063819e-06 
3.810171769530037e-06 
-5.255341072797826e-06 
0 
-1.818959838063819e-06 
-3.810171769530037e-06 
-1.818959838063819e-06 
3.810171769530037e-06 
-5.255341072797826e-06 
0 
-1.818959838063819e-06 
-3.810171769530037e-06 
-1.818959838063819e-06 
3.810171769530037e-06 
-5.255341072797826e-06 
0 
-1.818959838063819e-06 
-3.810171769530037e-06 
-1.818959838063819e-06 
3.810171769530037e-06 
-5.255341072797826e-06 
0 
-1.818959838063819e-06 
-3.810171769530037e-06 
-1.818959838063819e-06 
3.810171769530037e-06 
-5.255341072797826e-06 
0 
-1.818959838063819e-06 
-3.810171769530037e-06 
-1.818959838063819e-06 
3.810171769530037e-06 
-5.255341072797826e-06 
0 
-1.818959838063819e-06 
-3.810171769530037e-06 
-1.818959838063819e-06 
3.810171769530037e-06 
-5.255341072797826e-06 
0 
-1.818959838063819e-06 
-3.810171769530037e-06 
-1.818959838063819e-06 
3.810171769530037e-06 
-5.255341072797826e-06 
0 
-1.818959838063819e-06 
-3.810171769530037e-06 
-1.818959838063819e-06 
3.810171769530037e-06 
-5.255341072797826e-06 
0 
-1.818959838063819e-06 
-3.810171769530037e-06 
0.003481303696429867 
-0.001550049763404795 
0.002090761611789826 
0 
0.003481303696429867 
0.001550049763404795 
-0.01471511855605236 
-0.001111784981116591 
-0.0173749143047473 
0 
-0.01471511855605236 
0.001111784981116591 
-0.001798371894870751 
-0.001350995520005066 
-0.002571623905341043 
0 
-0.001798371894870751 
0.001350995520005066 
0.005312155862249955 
0.002374478080475235 
0.008021487863046744 
0 
0.005312155862249955 
-0.002374478080475235 
-0.0008377039106990694 
-0.0004405358359219489 
-0.002139236750846485 
0 
-0.0008377039106990694 
0.0004405358359219489 
-1.818959838063819e-06 
3.810171769530037e-06 
-5.255341072797826e-06 
0 
-1.818959838063819e-06 
-3.810171769530037e-06 
-1.818959838063819e-06 
3.810171769530037e-06 
-5.255341072797826e-06 
0 
-1.818959838063819e-06 
-3.810171769530037e-06 
-1.818959838063819e-06 
3.810171769530037e-06 
-5.255341072797826e-06 
0 
-1.818959838063819e-06 
-3.810171769530037e-06 
-1.818959838063819e-06 
3.810171769530037e-06 
-5.255341072797826e-06 
0 
-1.818959838063819e-06 
-3.810171769530037e-06 
-1.818959838063819e-06 
3.810171769530037e-06 
-5.255341072797826e-06 
0 
-1.818959838063819e-06 
-3.810171769530037e-06 
-1.818959838063819e-06 
3.810171769530037e-06 
-5.255341072797826e-06 
0 
-1.818959838063819e-06 
-3.810171769530037e-06 
-1.818959838063819e-06 
3.810171769530037e-06 
-5.255341072797826e-06 
0 
-1.818959838063819e-06 
-3.810171769530037e-06 
-1.818959838063819e-06 
3.810171769530037e-06 
-5.255341072797826e-06 
0 
-1.818959838063819e-06 
-3.810171769530037e-06 
-1.818959838063819e-06 
3.810171769530037e-06 
-5.255341072797826e-06 
0 
-1.818959838063819e-06 
-3.810171769530037e-06 
-1.818959838063819e-06 
3.810171769530037e-06 
-5.255341072797826e-06 
0 
-1.818959838063819e-06 
-3.810171769530037e-06 
-1.818959838063819e-06 
3.810171769530037e-06 
-5.255341072797826e-06 
0 
-1.818959838063819e-06 
-3.810171769530037e-06 
0.004882819117039108 
-0.001586255029748797 
0.004451358844715801 
0 
0.004882819117039108 
0.001586255029748797 
0.001253072331446651 
-0.003087600535529315 
-0.001012904694854574 
0 
0.001253072331446651 
0.003087600535529315 
-0.01176267639689923 
0.001229324594870032 
-0.01336130370464436 
0 
-0.01176267639689923 
-0.001229324594870032 
-0.009774042919901089 
-0.0004868393774962742 
-0.01063025307079652 
0 
-0.009774042919901089 
0.0004868393774962742 
0.003465066282134722 
-0.001857036318019057 
0.002972787523555891 
0 
0.003465066282134722 
0.001857036318019057 
-1.818959838063819e-06 
3.810171769530037e-06 
-5.255341072797826e-06 
0 
-1.818959838063819e-06 
-3.810171769530037e-06 
-1.818959838063819e-06 
3.810171769530037e-06 
-5.255341072797826e-06 
0 
-1.818959838063819e-06 
-3.810171769530037e-06 
-1.818959838063819e-06 
3.810171769530037e-06 
-5.255341072797826e-06 
0 
-1.818959838063819e-06 
-3.810171769530037e-06 
-1.818959838063819e-06 
3.810171769530037e-06 
-5.255341072797826e-06 
0 
-1.818959838063819e-06 
-3.810171769530037e-06 
-1.818959838063819e-06 
3.810171769530037e-06 
-5.255341072797826e-06 
0 
-1.818959838063819e-06 
-3.810171769530037e-06 
-1.818959838063819e-06 
3.810171769530037e-06 
-5.255341072797826e-06 
0 
-1.818959838063819e-06 
-3.810171769530037e-06 
-1.818959838063819e-06 
3.810171769530037e-06 
-5.255341072797826e-06 
0 
-1.818959838063819e-06 
-3.810171769530037e-06 
-1.818959838063819e-06 
3.810171769530037e-06 
-5.255341072797826e-06 
0 
-1.818959838063819e-06 
-3.810171769530037e-06 
-1.818959838063819e-06 
3.810171769530037e-06 
-5.255341072797826e-06 
0 
-1.818959838063819e-06 
-3.810171769530037e-06 
-1.818959838063819e-06 
3.810171769530037e-06 
-5.255341072797826e-06 
0 
-1.818959838063819e-06 
-3.810171769530037e-06 
-1.818959838063819e-06 
3.810171769530037e-06 
-5.255341072797826e-06 
0 
-1.818959838063819e-06 
-3.810171769530037e-06 
-0.006659184191790976 
0.001042983629690166 
-0.00785537955711358 
0 
-0.006659184191790976 
-0.001042983629690166 
-0.01705739081444157 
-0.001998029931107662 
-0.01927436820369052 
0 
-0.01705739081444157 
0.001998029931107662 
-0.005377282787906808 
0.00139917178198717 
-0.006143109525072906 
0 
-0.005377282787906808 
-0.00139917178198717 
0.00420083327902094 
0.004169073556713731 
0.006616136272600857 
0 
0.00420083327902094 
-0.004169073556713731 
0.001780468863412327 
-0.004208198852526374 
0.001051288068627752 
0 
0.001780468863412327 
0.004208198852526374 
-1.818959838063819e-06 
3.810171769530037e-06 
-5.255341072797826e-06 
0 
-1.818959838063819e-06 
-3.810171769530037e-06 
-1.818959838063819e-06 
3.810171769530037e-06 
-5.255341072797826e-06 
0 
-1.818959838063819e-06 
-3.810171769530037e-06 
-1.818959838063819e-06 
3.810171769530037e-06 
-5.255341072797826e-06 
0 
-1.818959838063819e-06 
-3.810171769530037e-06 
-1.818959838063819e-06 
3.810171769530037e-06 
-5.255341072797826e-06 
0 
-1.818959838063819e-06 
-3.810171769530037e-06 
-1.818959838063819e-06 
3.810171769530037e-06 
-5.255341072797826e-06 
0 
-1.818959838063819e-06 
-3.810171769530037e-06 
-1.818959838063819e-06 
3.810171769530037e-06 
-5.255341072797826e-06 
0 
-1.818959838063819e-06 
-3.810171769530037e-06 
-1.818959838063819e-06 
3.810171769530037e-06 
-5.255341072797826e-06 
0 
-1.818959838063819e-06 
-3.810171769530037e-06 
-1.818959838063819e-06 
3.810171769530037e-06 
-5.255341072797826e-06 
0 
-1.818959838063819e-06 
-3.810171769530037e-06 
-1.818959838063819e-06 
3.810171769530037e-06 
-5.255341072797826e-06 
0 
-1.818959838063819e-06 
-3.810171769530037e-06 
-1.818959838063819e-06 
3.810171769530037e-06 
-5.255341072797826e-06 
0 
-1.818959838063819e-06 
-3.810171769530037e-06 
-1.818959838063819e-06 
3.810171769530037e-06 
-5.255341072797826e-06 
0 
-1.818959838063819e-06 
-3.810171769530037e-06 
-0.0120322846471244 
0.001568410799784402 
-0.01431547652211052 
0 
-0.0120322846471244 
-0.001568410799784402 
-0.00914653779440781 
-0.0003151210728077008 
-0.009663670668880379 
0 
-0.00914653779440781 
0.0003151210728077008 
-0.00820556734305844 
0.0006193555918982534 
-0.009402179526350644 
0 
-0.00820556734305844 
-0.0006193555918982534 
-0.0007113177806238922 
0.002231351606830796 
0.0006768079692388027 
0 
-0.0007113177806238922 
-0.002231351606830796 
0.003387964067348426 
-0.004636805452532074 
0.002808643449102623 
0 
0.003387964067348426 
0.004636805452532074 
-1.818959838063819e-06 
3.810171769530037e-06 
-5.255341072797826e-06 
0 
-1.818959838063819e-06 
-3.810171769530037e-06 
-1.818959838063819e-06 
3.810171769530037e-06 
-5.255341072797826e-06 
0 
-1.818959838063819e-06 
-3.810171769530037e-06 
-1.818959838063819e-06 
3.810171769530037e-06 
-5.255341072797826e-06 
0 
-1.818959838063819e-06 
-3.810171769530037e-06 
-1.818959838063819e-06 
3.810171769530037e-06 
-5.255341072797826e-06 
0 
-1.818959838063819e-06 
-3.810171769530037e-06 
-1.818959838063819e-06 
3.810171769530037e-06 
-5.255341072797826e-06 
0 
-1.818959838063819e-06 
-3.810171769530037e-06 
-1.818959838063819e-06 
3.810171769530037e-06 
-5.255341072797826e-06 
0 
-1.818959838063819e-06 
-3.810171769530037e-06 
-1.818959838063819e-06 
3.810171769530037e-06 
-5.255341072797826e-06 
0 
-1.818959838063819e-06 
-3.810171769530037e-06 
-1.818959838063819e-06 
3.810171769530037e-06 
-5.255341072797826e-06 
0 
-1.818959838063819e-06 
-3.810171769530037e-06 
-1.818959838063819e-06 
3.810171769530037e-06 
-5.255341072797826e-06 
0 
-1.818959838063819e-06 
-3.810171769530037e-06 
-1.818959838063819e-06 
3.810171769530037e-06 
-5.255341072797826e-06 
0 
-1.818959838063819e-06 
-3.810171769530037e-06 
-1.818959838063819e-06 
3.810171769530037e-06 
-5.255341072797826e-06 
0 
-1.818959838063819e-06 
-3.810171769530037e-06 
-0.01526665055669827 
0.00346142712408175 
-0.01720077284189833 
0 
-0.01526665055669827 
-0.00346142712408175 
0.008019336797320482 
0.001802189657283342 
0.01050020231008181 
0 
0.008019336797320482 
-0.001802189657283342 
-0.002941014334949879 
-0.0008173721094920047 
-0.004002478979959747 
0 
-0.002941014334949879 
0.0008173721094920047 
-0.01707815978815268 
-0.001697398792447655 
-0.0180611464507761 
0 
-0.01707815978815268 
0.001697398792447655 
0.0006832038161804888 
-0.003920656267111115 
-0.0003728738946828486 
0 
0.0006832038161804888 
0.003920656267111115 
-1.818959838063819e-06 
3.810171769530037e-06 
-5.255341072797826e-06 
0 
-1.818959838063819e-06 
-3.810171769530037e-06 
-1.818959838063819e-06 
3.810171769530037e-06 
-5.255341072797826e-06 
0 
-1.818959838063819e-06 
-3.810171769530037e-06 
-1.818959838063819e-06 
3.810171769530037e-06 
-5.255341072797826e-06 
0 
-1.818959838063819e-06 
-3.810171769530037e-06 
-1.818959838063819e-06 
3.810171769530037e-06 
-5.255341072797826e-06 
0 
-1.818959838063819e-06 
-3.810171769530037e-06 
-1.818959838063819e-06 
3.810171769530037e-06 
-5.255341072797826e-06 
0 
-1.818959838063819e-06 
-3.810171769530037e-06 
-1.818959838063819e-06 
3.810171769530037e-06 
-5.255341072797826e-06 
0 
-1.818959838063819e-06 
-3.810171769530037e-06 
-1.818959838063819e-06 
3.810171769530037e-06 
-5.255341072797826e-06 
0 
-1.818959838063819e-06 
-3.810171769530037e-06 
-1.818959838063819e-06 
3.810171769530037e-06 
-5.255341072797826e-06 
0 
-1.818959838063819e-06 
-3.810171769530037e-06 
-1.818959838063819e-06 
3.810171769530037e-06 
-5.255341072797826e-06 
0 
-1.818959838063819e-06 
-3.810171769530037e-06 
-1.818959838063819e-06 
3.810171769530037e-06 
-5.255341072797826e-06 
0 
-1.818959838063819e-06 
-3.810171769530037e-06 
-1.818959838063819e-06 
3.810171769530037e-06 
-5.255341072797826e-06 
0 
-1.818959838063819e-06 
-3.810171769530037e-06 
-0.01121888003810431 
0.002048757246234816 
-0.013025176228075 
0 
-0.01121888003810431 
-0.002048757246234816 
0.006201174515339082 
-0.002484583826157687 
0.007065154566440316 
0 
0.006201174515339082 
0.002484583826157687 
-0.001441555292123527 
-0.0007038773235823273 
-0.002201053644110329 
0 
-0.001441555292123527 
0.0007038773235823273 
-0.003843144282955058 
0.0001249563111642915 
-0.002850221839267714 
0 
-0.003843144282955058 
-0.0001249563111642915 
-0.006956279176684779 
-0.0007563718466601536 
-0.009403203534205033 
0 
-0.006956279176684779 
0.0007563718466601536 
-1.818959838063819e-06 
3.810171769530037e-06 
-5.255341072797826e-06 
0 
-1.818959838063819e-06 
-3.810171769530037e-06 
-1.818959838063819e-06 
3.810171769530037e-06 
-5.255341072797826e-06 
0 
-1.818959838063819e-06 
-3.810171769530037e-06 
-1.818959838063819e-06 
3.810171769530037e-06 
-5.255341072797826e-06 
0 
-1.818959838063819e-06 
-3.810171769530037e-06 
-1.818959838063819e-06 
3.810171769530037e-06 
-5.255341072797826e-06 
0 
-1.818959838063819e-06 
-3.810171769530037e-06 
-1.818959838063819e-06 
3.810171769530037e-06 
-5.255341072797826e-06 
0 
-1.818959838063819e-06 
-3.810171769530037e-06 
-1.818959838063819e-06 
3.810171769530037e-06 
-5.255341072797826e-06 
0 
-1.818959838063819e-06 
-3.810171769530037e-06 
-1.818959838063819e-06 
3.810171769530037e-06 
-5.255341072797826e-06 
0 
-1.818959838063819e-06 
-3.810171769530037e-06 
-1.818959838063819e-06 
3.810171769530037e-06 
-5.255341072797826e-06 
0 
-1.818959838063819e-06 
-3.810171769530037e-06 
-1.818959838063819e-06 
3.810171769530037e-06 
-5.255341072797826e-06 
0 
-1.818959838063819e-06 
-3.810171769530037e-06 
-1.818959838063819e-06 
3.810171769530037e-06 
-5.255341072797826e-06 
0 
-1.818959838063819e-06 
-3.810171769530037e-06 
-1.818959838063819e-06 
3.810171769530037e-06 
-5.255341072797826e-06 
0 
-1.818959838063819e-06 
-3.810171769530037e-06 
-0.01027927737489463 
0.001000949666846529 
-0.01182104466391306 
0 
-0.01027927737489463 
-0.001000949666846529 
-0.006315424867114337 
-0.003719338195422377 
-0.008792592957161196 
0 
-0.006315424867114337 
0.003719338195422377 
0.007394150987989079 
-0.003055786088245095 
0.007182712576621965 
0 
0.007394150987989079 
0.003055786088245095 
-0.004867470793733896 
-0.001661188021842745 
-0.005231750069486726 
0 
-0.004867470793733896 
0.001661188021842745 
-0.01310133611165866 
7.292041044173729e-05 
-0.01620635963967943 
0 
-0.01310133611165866 
-7.292041044173729e-05 
-1.818959838063819e-06 
3.810171769530037e-06 
-5.255341072797826e-06 
0 
-1.818959838063819e-06 
-3.810171769530037e-06 
-1.818959838063819e-06 
3.810171769530037e-06 
-5.255341072797826e-06 
0 
-1.818959838063819e-06 
-3.810171769530037e-06 
-1.818959838063819e-06 
3.810171769530037e-06 
-5.255341072797826e-06 
0 
-1.818959838063819e-06 
-3.810171769530037e-06 
-1.818959838063819e-06 
3.810171769530037e-06 
-5.255341072797826e-06 
0 
-1.818959838063819e-06 
-3.810171769530037e-06 
-1.818959838063819e-06 
3.810171769530037e-06 
-5.255341072797826e-06 
0 
-1.818959838063819e-06 
-3.810171769530037e-06 
-1.818959838063819e-06 
3.810171769530037e-06 
-5.255341072797826e-06 
0 
-1.818959838063819e-06 
-3.810171769530037e-06 
-1.818959838063819e-06 
3.810171769530037e-06 
-5.255341072797826e-06 
0 
-1.818959838063819e-06 
-3.810171769530037e-06 
-1.818959838063819e-06 
3.810171769530037e-06 
-5.255341072797826e-06 
0 
-1.818959838063819e-06 
-3.810171769530037e-06 
-1.818959838063819e-06 
3.810171769530037e-06 
-5.255341072797826e-06 
0 
-1.818959838063819e-06 
-3.810171769530037e-06 
-1.818959838063819e-06 
3.810171769530037e-06 
-5.255341072797826e-06 
0 
-1.818959838063819e-06 
-3.810171769530037e-06 
-1.818959838063819e-06 
3.810171769530037e-06 
-5.255341072797826e-06 
0 
-1.818959838063819e-06 
-3.810171769530037e-06 
-0.007525816963094578 
0.00124206509051387 
-0.00930321000233964 
0 
-0.007525816963094578 
-0.00124206509051387 
0.00494137850083197 
0.001388848751466334 
0.007503450964793127 
0 
0.00494137850083197 
-0.001388848751466334 
0.00298684609951106 
-0.001844377463087239 
0.002380626078090027 
0 
0.00298684609951106 
0.001844377463087239 
-0.004827600525637185 
0.00195960799387045 
-0.003333444774272538 
0 
-0.004827600525637185 
-0.00195960799387045 
-0.00692503599459275 
-0.0005025293587088113 
-0.009106242503162431 
0 
-0.00692503599459275 
0.0005025293587088113 
-1.818959838063819e-06 
3.810171769530037e-06 
-5.255341072797826e-06 
0 
-1.818959838063819e-06 
-3.810171769530037e-06 
-1.818959838063819e-06 
3.810171769530037e-06 
-5.255341072797826e-06 
0 
-1.818959838063819e-06 
-3.810171769530037e-06 
-1.818959838063819e-06 
3.810171769530037e-06 
-5.255341072797826e-06 
0 
-1.818959838063819e-06 
-3.810171769530037e-06 
-1.818959838063819e-06 
3.810171769530037e-06 
-5.255341072797826e-06 
0 
-1.818959838063819e-06 
-3.810171769530037e-06 
-1.818959838063819e-06 
3.810171769530037e-06 
-5.255341072797826e-06 
0 
-1.818959838063819e-06 
-3.810171769530037e-06 
-1.818959838063819e-06 
3.810171769530037e-06 
-5.255341072797826e-06 
0 
-1.818959838063819e-06 
-3.810171769530037e-06 
-1.818959838063819e-06 
3.810171769530037e-06 
-5.255341072797826e-06 
0 
-1.818959838063819e-06 
-3.810171769530037e-06 
-1.818959838063819e-06 
3.810171769530037e-06 
-5.255341072797826e-06 
0 
-1.818959838063819e-06 
-3.810171769530037e-06 
-1.818959838063819e-06 
3.810171769530037e-06 
-5.255341072797826e-06 
0 
-1.818959838063819e-06 
-3.810171769530037e-06 
-1.818959838063819e-06 
3.810171769530037e-06 
-5.255341072797826e-06 
0 
-1.818959838063819e-06 
-3.810171769530037e-06 
-1.818959838063819e-06 
3.810171769530037e-06 
-5.255341072797826e-06 
0 
-1.818959838063819e-06 
-3.810171769530037e-06 
0.002021485351835917 
-0.00234171265850982 
0.0006856420304901161 
0 
0.002021485351835917 
0.00234171265850982 
-0.01419137411433607 
-0.002943253714216288 
-0.01600266552305383 
0 
-0.01419137411433607 
0.002943253714216288 
-0.01095188054574039 
0.0007291106365830757 
-0.01323827576369212 
0 
-0.01095188054574039 
-0.0007291106365830757 
0.01063152670758324 
0.00234149447902811 
0.01378652608366143 
0 
0.01063152670758324 
-0.00234149447902811 
-0.005228532930791956 
-0.001749006975313452 
-0.006872802268416197 
0 
-0.005228532930791956 
0.001749006975313452 
-1.818959838063819e-06 
3.810171769530037e-06 
-5.255341072797826e-06 
0 
-1.818959838063819e-06 
-3.810171769530037e-06 
-1.818959838063819e-06 
3.810171769530037e-06 
-5.255341072797826e-06 
0 
-1.818959838063819e-06 
-3.810171769530037e-06 
-1.818959838063819e-06 
3.810171769530037e-06 
-5.255341072797826e-06 
0 
-1.818959838063819e-06 
-3.810171769530037e-06 
-1.818959838063819e-06 
3.810171769530037e-06 
-5.255341072797826e-06 
0 
-1.818959838063819e-06 
-3.810171769530037e-06 
-1.818959838063819e-06 
3.810171769530037e-06 
-5.255341072797826e-06 
0 
-1.818959838063819e-06 
-3.810171769530037e-06 
-1.818959838063819e-06 
3.810171769530037e-06 
-5.255341072797826e-06 
0 
-1.818959838063819e-06 
-3.810171769530037e-06 
-1.818959838063819e-06 
3.810171769530037e-06 
-5.255341072797826e-06 
0 
-1.818959838063819e-06 
-3.810171769530037e-06 
-1.818959838063819e-06 
3.810171769530037e-06 
-5.255341072797826e-06 
0 
-1.818959838063819e-06 
-3.810171769530037e-06 
-1.818959838063819e-06 
3.810171769530037e-06 
-5.255341072797826e-06 
0 
-1.818959838063819e-06 
-3.810171769530037e-06 
-1.818959838063819e-06 
3.810171769530037e-06 
-5.255341072797826e-06 
0 
-1.818959838063819e-06 
-3.810171769530037e-06 
-1.818959838063819e-06 
3.810171769530037e-06 
-5.255341072797826e-06 
0 
-1.818959838063819e-06 
-3.810171769530037e-06 
-0.003897930007623009 
-0.0006225734575290656 
-0.004716064466676897 
0 
-0.003897930007623009 
0.0006225734575290656 
-0.0002069418217391635 
-0.004265827206318109 
-0.001994232743542317 
0 
-0.0002069418217391635 
0.004265827206318109 
-0.01416869050586412 
0.00211757708058583 
-0.01616713040760646 
0 
-0.01416869050586412 
-0.00211757708058583 
-0.01253254874149639 
-0.004422191824600457 
-0.01581020199813634 
0 
-0.01253254874149639 
0.004422191824600457 
0.004128194624790011 
-0.003058522531967896 
0.003570841477462994 
0 
0.004128194624790011 
0.003058522531967896 
-1.818959838063819e-06 
3.810171769530037e-06 
-5.255341072797826e-06 
0 
-1.818959838063819e-06 
-3.810171769530037e-06 
-1.818959838063819e-06 
3.810171769530037e-06 
-5.255341072797826e-06 
0 
-1.818959838063819e-06 
-3.810171769530037e-06 
-1.818959838063819e-06 
3.810171769530037e-06 
-5.255341072797826e-06 
0 
-1.818959838063819e-06 
-3.810171769530037e-06 
-1.818959838063819e-06 
3.810171769530037e-06 
-5.255341072797826e-06 
0 
-1.818959838063819e-06 
-3.810171769530037e-06 
-1.818959838063819e-06 
3.810171769530037e-06 
-5.255341072797826e-06 
0 
-1.818959838063819e-06 
-3.810171769530037e-06 
-1.818959838063819e-06 
3.810171769530037e-06 
-5.255341072797826e-06 
0 
-1.818959838063819e-06 
-3.810171769530037e-06 
-1.818959838063819e-06 
3.810171769530037e-06 
-5.255341072797826e-06 
0 
-1.818959838063819e-06 
-3.810171769530037e-06 
-1.818959838063819e-06 
3.810171769530037e-06 
-5.255341072797826e-06 
0 
-1.818959838063819e-06 
-3.810171769530037e-06 
-1.818959838063819e-06 
3.810171769530037e-06 
-5.255341072797826e-06 
0 
-1.818959838063819e-06 
-3.810171769530037e-06 
-1.818959838063819e-06 
3.810171769530037e-06 
-5.255341072797826e-06 
0 
-1.818959838063819e-06 
-3.810171769530037e-06 
-1.818959838063819e-06 
3.810171769530037e-06 
-5.255341072797826e-06 
0 
-1.818959838063819e-06 
-3.810171769530037e-06 
0.0006199267635350084 
-0.00098848918946392 
-0.0002983778873457195 
0 
0.0006199267635350084 
0.00098848918946392 
-0.01590602541737532 
-0.003085606053881701 
-0.01939761729679752 
0 
-0.01590602541737532 
0.003085606053881701 
-0.005324784844299968 
0.001365565883541318 
-0.007048785104555986 
0 
-0.005324784844299968 
-0.001365565883541318 
-0.007645926704334235 
0.0009723087986774391 
-0.007610300368059394 
0 
-0.007645926704334235 
-0.0009723087986774391 
0.006484253946525437 
-0.004372867086274813 
0.006162165764364458 
0 
0.006484253946525437 
0.004372867086274813 
-1.818959838063819e-06 
3.810171769530037e-06 
-5.255341072797826e-06 
0 
-1.818959838063819e-06 
-3.810171769530037e-06 
-1.818959838063819e-06 
3.810171769530037e-06 
-5.255341072797826e-06 
0 
-1.818959838063819e-06 
-3.810171769530037e-06 
-1.818959838063819e-06 
3.810171769530037e-06 
-5.255341072797826e-06 
0 
-1.818959838063819e-06 
-3.810171769530037e-06 
-1.818959838063819e-06 
3.810171769530037e-06 
-5.255341072797826e-06 
0 
-1.818959838063819e-06 
-3.810171769530037e-06 
-1.818959838063819e-06 
3.810171769530037e-06 
-5.255341072797826e-06 
0 
-1.818959838063819e-06 
-3.810171769530037e-06 
-1.818959838063819e-06 
3.810171769530037e-06 
-5.255341072797826e-06 
0 
-1.818959838063819e-06 
-3.810171769530037e-06 
-1.818959838063819e-06 
3.810171769530037e-06 
-5.255341072797826e-06 
0 
-1.818959838063819e-06 
-3.810171769530037e-06 
-1.818959838063819e-06 
3.810171769530037e-06 
-5.255341072797826e-06 
0 
-1.818959838063819e-06 
-3.810171769530037e-06 
-1.818959838063819e-06 
3.810171769530037e-06 
-5.255341072797826e-06 
0 
-1.818959838063819e-06 
-3.810171769530037e-06 
-1.818959838063819e-06 
3.810171769530037e-06 
-5.255341072797826e-06 
0 
-1.818959838063819e-06 
-3.810171769530037e-06 
-1.818959838063819e-06 
3.810171769530037e-06 
-5.255341072797826e-06 
0 
-1.818959838063819e-06 
-3.810171769530037e-06 
0.006081849344843915 
-0.001013305964129777 
0.005570164763209071 
0 
0.006081849344843915 
0.001013305964129777 
-0.006754907894891908 
-0.002121024763956231 
-0.007646493780649741 
0 
-0.006754907894891908 
0.002121024763956231 
-0.001193875183546432 
0.0006492360030652302 
-0.002223674974399516 
0 
-0.001193875183546432 
-0.0006492360030652302 
-0.003788862884745131 
0.00143356982200564 
-0.002359838071983128 
0 
-0.003788862884745131 
-0.00143356982200564 
-0.001765548242793321 
-0.001394415720539328 
-0.003385560427670305 
0 
-0.001765548242793321 
0.001394415720539328 
-1.818959838063819e-06 
3.810171769530037e-06 
-5.255341072797826e-06 
0 
-1.818959838063819e-06 
-3.810171769530037e-06 
-1.818959838063819e-06 
3.810171769530037e-06 
-5.255341072797826e-06 
0 
-1.818959838063819e-06 
-3.810171769530037e-06 
-1.818959838063819e-06 
3.810171769530037e-06 
-5.255341072797826e-06 
0 
-1.818959838063819e-06 
-3.810171769530037e-06 
-1.818959838063819e-06 
3.810171769530037e-06 
-5.255341072797826e-06 
0 
-1.818959838063819e-06 
-3.810171769530037e-06 
-1.818959838063819e-06 
3.810171769530037e-06 
-5.255341072797826e-06 
0 
-1.818959838063819e-06 
-3.810171769530037e-06 
-1.818959838063819e-06 
3.810171769530037e-06 
-5.255341072797826e-06 
0 
-1.818959838063819e-06 
-3.810171769530037e-06 
-1.818959838063819e-06 
3.810171769530037e-06 
-5.255341072797826e-06 
0 
-1.818959838063819e-06 
-3.810171769530037e-06 
-1.818959838063819e-06 
3.810171769530037e-06 
-5.255341072797826e-06 
0 
-1.818959838063819e-06 
-3.810171769530037e-06 
-1.818959838063819e-06 
3.810171769530037e-06 
-5.255341072797826e-06 
0 
-1.818959838063819e-06 
-3.810171769530037e-06 
-1.818959838063819e-06 
3.810171769530037e-06 
-5.255341072797826e-06 
0 
-1.818959838063819e-06 
-3.810171769530037e-06 
-1.818959838063819e-06 
3.810171769530037e-06 
-5.255341072797826e-06 
0 
-1.818959838063819e-06 
-3.810171769530037e-06 
-0.006186367260670639 
-0.0002640138022522507 
-0.007911641485074172 
0 
-0.006186367260670639 
0.0002640138022522507 
-0.00930861823614744 
-0.00158106272034708 
-0.01125103818847417 
0 
-0.00930861823614744 
0.00158106272034708 
-0.01169548557731149 
0.00114172181015578 
-0.01424955561326129 
0 
-0.01169548557731149 
-0.00114172181015578 
-0.008433307457939051 
-0.000341271422315325 
-0.00876499705626399 
0 
-0.008433307457939051 
0.000341271422315325 
0.003081239098259541 
-0.005193515536734713 
0.002334932385501248 
0 
0.003081239098259541 
0.005193515536734713 
-1.818959838063819e-06 
3.810171769530037e-06 
-5.255341072797826e-06 
0 
-1.818959838063819e-06 
-3.810171769530037e-06 
-1.818959838063819e-06 
3.810171769530037e-06 
-5.255341072797826e-06 
0 
-1.818959838063819e-06 
-3.810171769530037e-06 
-1.818959838063819e-06 
3.810171769530037e-06 
-5.255341072797826e-06 
0 
-1.818959838063819e-06 
-3.810171769530037e-06 
-1.818959838063819e-06 
3.810171769530037e-06 
-5.255341072797826e-06 
0 
-1.818959838063819e-06 
-3.810171769530037e-06 
-1.818959838063819e-06 
3.810171769530037e-06 
-5.255341072797826e-06 
0 
-1.818959838063819e-06 
-3.810171769530037e-06 
-1.818959838063819e-06 
3.810171769530037e-06 
-5.255341072797826e-06 
0 
-1.818959838063819e-06 
-3.810171769530037e-06 
-1.818959838063819e-06 
3.810171769530037e-06 
-5.255341072797826e-06 
0 
-1.818959838063819e-06 
-3.810171769530037e-06 
